2398 100
R529 -0.08799196 -0.035748623 0.12578417 0.15341036 0.011881947 -0.1206109 -0.20158109 -0.057821468 0.1927954 -0.0053505353 0.055466086 -0.11927552 -0.027447803 -0.12599578 0.22166501 0.13984479 -0.11175391 0.13011287 0.11925267 -0.11835628 -0.05008861 1.1770995e-05 -0.002031963 0.07468512 0.09410514 -0.031049397 0.04918274 -0.18192233 -0.12102165 -0.07283411 -0.10957206 0.036547646 -0.03008682 -0.014206714 0.035961464 0.11118045 -0.16396122 0.06897421 -0.06263089 -0.055651497 -0.07433972 -0.0477282 -0.013717628 0.09126841 -0.071436845 0.043168027 0.051800016 0.015909987 0.19073166 -0.035931025 0.0018880242 -0.04416197 0.040244758 0.05706271 -0.061323024 -0.2638735 -0.038994707 0.15049124 0.020696841 -0.14604211 -0.0510588 0.21659243 0.109299816 0.03252928 -0.0388864 0.13656428 -0.007477168 -0.07081898 -0.013254666 0.112924844 -0.105485246 -0.08494935 -0.0047747246 0.054052282 -0.05633374 -0.09880844 -0.03394942 -0.13200639 0.1032781 0.04588061 -0.067934744 -0.16867152 -0.0033136548 -0.100304425 -0.03681903 0.09190666 -0.07122661 0.12085935 0.13549177 0.027840579 0.15281075 0.20909047 -0.0864985 -0.08588737 0.0069953725 0.025087012 -0.05060022 -0.07084841 0.115874626 -0.060677785
R509 -0.15144008 -0.14549549 0.09852825 0.077114575 -0.061071754 -0.19535266 -0.20118295 -0.0780059 0.073542766 0.11841202 0.067250215 -0.17978454 -0.20056704 -0.020341989 0.17067616 -0.05913076 -0.03905291 0.05919623 0.039804827 0.009355898 -0.13556579 -0.030579394 -0.029150283 0.09912797 0.042853035 -0.14851663 -0.08620661 -0.09986603 -0.01652677 0.05107471 -0.15564904 -0.039793845 -0.061209735 0.19335902 0.10910998 0.043216094 -0.14624652 -0.06532618 0.047156334 -0.004375331 -0.14435445 0.070474595 -0.020613972 -0.028323507 -0.13067743 0.12132946 0.16854995 -0.051678874 0.084623866 -0.002823972 -0.0924926 0.013365523 -0.09171117 0.04389323 -0.15141754 -0.04912315 -0.039130658 0.004599143 0.1037731 -0.11214983 -0.050152425 0.13275164 0.07789725 0.044735387 0.19657807 0.028823195 0.09150703 0.06637374 -0.13492277 0.0069672056 -0.066051796 -0.2057411 0.097570956 0.09410003 -0.031776115 -0.05444856 -0.08730708 0.08699714 0.009400594 -0.034927133 -0.15541093 -0.20189057 0.15023883 -0.07152063 -0.11534403 -0.043835364 -0.030300349 0.021562973 0.07331184 0.0036459647 0.056664858 0.20976079 0.040298898 0.07612146 -0.0024925317 -0.022393852 0.052727498 -0.04540399 0.08395223 0.02228885
R11 -0.06179347 -0.059484757 0.13021302 0.008786434 0.08238761 -0.06133142 -0.28736448 0.044652633 0.14635502 0.07061903 0.029985681 -0.07441077 0.027271243 -0.08628813 0.1866622 0.021023175 0.009511851 -0.0022964277 0.07313991 -0.056688394 -0.12610976 -0.027851518 -0.0033789533 0.091004156 0.09374611 -0.03720469 0.012176186 -0.19487356 -0.055049736 0.046286166 -0.1349694 -0.06894679 0.10137268 0.15839985 0.20543334 -0.035688072 -0.04497404 0.012099929 0.08984539 0.07163044 -0.17671281 0.02609953 0.043436725 -0.05802122 -0.15451598 0.13354006 0.0999911 -0.07752689 0.14155598 0.04701115 -0.0672724 0.026914239 -0.05481883 0.109081075 -0.15238339 -0.026760753 0.15677842 0.14336154 -0.0639671 -0.06090109 -0.14827529 0.017209364 0.15361072 0.029009229 0.08086223 0.08434319 0.13607855 0.034419086 -0.056488674 0.12473293 -0.09390774 -0.1188929 0.000381409 -0.03753055 -0.026652634 -0.0927043 -0.039841086 0.061248 -0.055541083 0.028205497 -0.057887867 -0.151954 0.092324615 -0.07412445 -0.02739646 -0.012124807 -0.18530682 0.16581409 0.053331368 -0.07243169 -0.006806165 0.29762074 0.07671531 -0.052614775 -0.1313852 0.07539995 0.082971394 -0.0684241 0.030823376 0.0019560289
R58 -0.07552182 -0.01631271 0.14113799 0.14226 0.13970305 -0.15502024 -0.20593137 0.0072323526 0.044718258 0.14624089 0.0436305 -0.15338579 -0.035566635 0.0469034 0.05609249 0.0646894 0.030282285 0.067316175 0.025546242 0.0018805268 -0.10484907 -0.18972404 -0.06683311 0.022426441 0.019409033 0.03691961 -0.0345487 -0.19694386 0.09547225 0.0050410978 -0.03908054 -0.064529255 0.029737014 0.123831175 -0.039924223 0.086861104 0.013108701 -0.14910522 0.07932438 -0.048341397 -0.04078658 -0.05616351 -0.013721871 0.05618555 -0.010355739 0.018894669 0.10757954 0.010446943 -0.044975873 -0.15731764 -0.08493435 -0.006950826 0.08683978 0.063675925 0.019561281 -0.110576734 0.024127545 0.13878979 0.0628471 -0.097693674 -0.05477131 0.055538733 0.15735987 0.016500285 0.026141483 0.012217526 0.10619313 0.0086822985 -0.1339603 0.01605964 0.014820713 -0.11447213 0.0746929 0.10464964 0.05477717 -0.031192213 -0.20038825 -0.18693335 0.045045998 -0.12266417 -0.022238191 -0.0609347 0.095550284 0.21647504 0.036986932 0.09896212 -0.23085599 0.10381065 0.102258675 -0.07407195 0.033651233 0.21042044 -0.00141432 -0.15142673 -0.03484059 0.2687426 0.07819933 0.1239993 -0.06630915 -0.1371412
E14 -0.14736082 -0.14334375 -0.095682 0.015163719 -0.099761985 0.058110047 -0.06482402 -0.0828929 -0.19794193 -0.08917398 0.008995514 -0.051938597 0.023234887 0.23634012 -0.010730236 0.07607289 -0.18436687 -0.091250956 0.06294268 0.06766884 -0.1306187 0.04807896 -0.047371376 -0.029602962 -0.016972883 0.047874827 0.0039735357 -0.027974334 0.18582334 0.0064188824 -0.058077883 -0.06249829 0.060097985 0.0020094935 -0.037521977 -0.051939 0.10037754 -0.12282788 -0.13566297 0.023575237 -0.021653768 0.020935884 0.05007536 0.01222694 -0.054869626 -0.034728374 -0.06801686 0.021731535 -0.10785507 0.053539917 -0.090552926 0.002394102 -0.018952474 -0.011242849 -0.092081696 -0.16380654 0.069525756 0.10582912 0.07090448 -0.049886372 -0.013170247 -0.16825679 -0.12586142 -0.00421565 0.13160437 -0.123039246 0.050780084 0.12648687 -0.17869505 0.09934398 0.023177397 0.10394714 -0.113190174 -0.04176923 0.08226493 -0.089081466 0.082781054 -0.08756408 0.06897566 -0.13444223 0.00096733967 0.04116213 0.0032533067 -0.08808824 0.03242201 0.25788832 -0.058893394 -0.04402529 0.07631065 -0.17079732 0.00042204157 0.04512098 0.2828122 -0.23957032 0.08656631 0.15183726 0.056057446 0.0918879 0.04444764 -0.1740748
R21 -0.05845561 -0.16819668 0.06616506 0.10157155 0.057460688 -0.055450577 -0.15239614 -0.15223037 0.1456185 0.067014255 0.052416626 -0.1712163 -0.13228771 -0.0361013 0.015438273 -0.021562018 -0.056976885 0.07013424 -0.065168075 -0.009795788 -0.17988236 0.061240025 -0.042121302 0.20405729 0.12602831 -0.15602387 0.035873566 -0.24391848 -0.11716596 -0.053782128 -0.23072521 -0.029547464 0.0053862683 0.0025043741 6.8816444e-05 0.062137414 -0.06432368 -0.036865085 -0.03172278 -0.09037333 0.089361615 0.04129193 -0.035693493 0.15757088 0.031284686 0.03864264 0.13604185 -0.12370027 0.025847089 -0.07598535 -0.017162757 0.07869071 0.016853139 0.09924191 -0.14380231 -0.19746704 -0.15170988 0.11077579 0.014782201 -0.048920665 0.07233979 0.09000707 0.06797636 -0.0033036857 0.10643296 0.09866961 -0.023522627 0.021676788 -0.04154057 0.030850587 -0.04054065 -0.14949162 0.09137402 0.19733138 -0.008585417 -0.04930309 -0.10069909 -0.053938113 0.053532835 -0.10951993 -0.07983982 -0.113626726 0.12577987 -0.09803052 -0.11539537 -0.0016527274 0.062075574 0.017321391 0.1539152 0.11761317 0.04659187 0.14141917 -0.05601293 0.04326098 -0.05515723 -0.07474111 -0.05637111 -0.21091536 0.13644792 -0.047885884
R609 -0.16020845 -0.123414494 0.1235791 0.067007415 0.086662635 -0.012983658 -0.23656581 -0.091692336 0.11106638 0.005117577 0.102730855 -0.12953179 -0.009097568 0.08111943 0.15763906 -0.0066853045 -0.009354801 0.07349213 0.044357885 0.10709481 -0.064627685 -0.08997383 0.02074887 0.13302049 0.09149392 -0.15562855 -0.027363742 -0.23163955 -0.06872562 -0.05232828 -0.14577092 -0.11224797 0.096103564 -0.05015403 0.0021016141 0.116898715 -0.03392656 -0.117870525 -0.05719206 -0.10819763 -0.04767439 0.07374744 -0.0712886 0.09867364 -0.074438155 0.08449292 0.009571715 -0.035615183 0.049508654 -0.13734622 0.10643463 0.049385995 0.004879282 0.024037667 0.0065342407 -0.27752498 0.030538222 0.14420572 -0.03812383 -0.14821929 -0.077491984 0.051390607 0.043071944 0.014682718 0.05288918 0.19268042 0.027434636 -0.11918994 -0.14110704 0.111608334 -0.0054601883 -0.201346 -0.039845232 0.13220054 -0.009804459 -0.13167897 -0.14391771 -0.14335382 0.046555374 -0.08282353 -0.0744026 0.014221183 0.07229702 -0.100066714 0.003744731 0.052523892 -0.1058653 0.06990474 0.07286228 -0.012132871 -0.011312676 0.16069959 0.03705705 -0.05987138 -0.034850705 0.16487074 -0.061948292 -0.1695673 0.044517897 -0.06317634
R51 -0.16361867 0.00064141734 0.11933367 0.054287035 0.053672563 -0.20429632 -0.20027627 -0.037740044 0.097143106 0.07254201 0.06858742 -0.0012661036 -0.07823091 -0.08787005 0.19812948 0.048162196 -0.07880882 -0.09498992 0.1299634 -0.037509475 -0.04062188 0.02368176 -0.054172304 0.1062069 0.048755504 0.03816787 0.059989903 -0.16089217 -0.049483567 -0.025430713 -0.18703581 -0.04949302 0.099732496 0.060820546 0.15086164 0.024074074 -0.07583629 -0.011604316 -0.037339713 -0.012374867 -0.22709002 -0.008915422 0.057969514 0.09770106 -0.1212214 0.03630846 0.028518353 -0.03705782 0.17347652 0.0019477259 -0.049952228 -0.06565171 -0.14998482 0.016490636 -0.12617198 -0.31723526 -0.011207762 0.049150486 0.018856434 -0.04547673 -0.1272821 0.17395729 0.044630643 -0.0021934926 0.15290515 0.09958369 -0.011105565 0.08025026 -0.018178388 0.14890635 -0.072164625 -0.06792582 -0.015143147 0.07762265 0.022996888 -0.19484301 -0.04176724 0.06558547 0.106451295 -0.013389043 -0.09710189 -0.11430747 0.027454136 -0.070405394 -0.06689218 0.086395636 -0.0694178 0.06011867 0.14628436 -0.013024875 0.017251499 0.26583478 0.057696197 -0.08256247 -0.07644265 0.0805466 0.10110152 -0.007429409 0.073572084 -0.025914695
D649 -0.10094942 -0.14630817 0.18071476 0.036897756 0.032938424 -0.027406722 -0.24674198 -0.052123863 0.00037915236 -0.015985638 -0.05753282 -0.13663684 -0.06371778 0.010564152 0.05419327 -0.07038506 -0.002281153 -0.0065527917 0.15916543 0.15733011 -0.10233152 -0.1215014 -0.06449782 0.054620985 -0.04268152 -0.1267724 -0.05577816 -0.040891394 0.022970762 0.03229996 -0.08206868 -0.059114236 0.1335315 0.1528327 0.14515528 0.055642247 0.084614515 -0.29179734 -0.029890556 -0.054380633 -0.1830451 0.107874595 -0.016409498 0.042205635 -0.058168318 0.16960594 0.027380237 0.03298638 -0.058489088 -0.14936665 0.10473764 -0.028477648 0.0039852248 0.1628838 -0.11297998 -0.25125095 0.06885906 0.13121541 0.004463826 -0.08139172 -0.12270765 0.015324968 -0.0068933503 0.14208616 0.124980316 0.08143712 0.05359289 -0.042972546 -0.18019778 0.04290866 -0.040213045 -0.08346034 -0.054947082 -0.0384832 0.12825699 -0.03613481 -0.099320196 -0.07989506 0.056138705 -0.033703677 -0.037798893 -0.025907798 0.04985574 0.07367018 -0.07616207 0.21782097 -0.080281146 0.0908692 0.03669956 -0.071466394 -0.052937355 0.21338297 -0.00871386 -0.06511849 0.004839654 0.13607983 0.042942673 -0.0034442618 -0.004449676 -0.02734301
J189 -0.118507236 -0.117211685 -0.098514825 -0.019812785 -0.030184923 0.04700847 -0.047527228 -0.2826602 0.033488605 0.06906721 0.14299653 0.010746347 -0.17618668 0.095471285 0.030893013 -0.04372064 0.04107687 -0.06730857 -0.042641632 -0.033983134 -0.1237215 0.2025216 -0.09675912 -0.036961485 0.0001904076 0.088245064 -0.06514721 -0.0006960498 0.075849935 0.013974333 -0.043040533 -0.18666546 -0.09990707 0.08759374 0.05317603 -0.1243493 -0.059470195 -0.119914666 0.1139709 0.009937234 -0.030115023 -0.07727022 -0.06563262 -0.10342998 0.094579965 0.16365908 0.17209072 -0.06709381 -0.115723066 -0.13414563 -0.07807802 -0.09682495 -0.09823444 0.06737186 -0.06514059 -0.13296114 -0.11498118 0.111999005 0.024861775 -0.09515326 -0.116366394 0.05812689 -0.0076220986 -0.09762685 0.2538615 0.03509321 -0.01400085 0.13009329 -0.09134157 0.05865601 -0.052653 -0.041039813 0.17803161 -0.041574817 0.07753912 -0.11039735 -0.16827728 -0.03528725 -0.020404385 -0.03655038 -0.094504334 -0.15195532 0.07704732 0.13506301 -0.0738461 0.058241405 -0.110926606 -0.17479722 0.072396934 0.04068924 -0.10634503 0.09442357 0.18071596 0.058600318 -0.01725922 0.09926016 0.07604533 0.05203268 0.013230861 -0.030725798
R53 -0.07089677 -0.11007474 0.0883341 -0.021432249 0.05285074 -0.10120068 -0.20864697 -0.047802527 0.14361274 -0.070583306 0.024321496 -0.023880614 -0.01330673 -0.10419446 0.12721005 0.075335585 0.009602384 0.06265838 0.09370953 0.10893046 -0.04548774 -0.056001686 0.050696008 0.15301855 0.051295944 -0.0648862 -0.040548213 -0.12926558 -0.034568112 -0.02600255 -0.08392846 -0.026917981 0.1565893 0.039905783 0.25493002 0.07197802 -0.07482484 -0.09188221 -0.044843823 -0.016572332 -0.24568722 0.16699657 0.014676348 0.04074483 -0.1328956 0.07021123 0.02392876 -0.054946564 0.12489089 -0.007886507 -0.016805336 -0.021747716 -0.08542415 0.15417416 -0.071698315 -0.2112294 -0.02303036 0.050475292 0.01224344 -0.09036961 -0.1590615 0.08413892 0.10701434 0.0066369483 0.22815517 0.11806581 0.09995375 -0.0006222359 -0.07005684 0.15775825 -0.020608954 -0.19230281 -0.004007128 -0.055885512 0.0013116547 -0.099201195 -0.023643889 0.11248519 0.013570618 0.082745805 -0.0681264 -0.07034406 0.13693763 -0.14382182 -0.13780616 0.15990943 -0.1364008 0.07710157 0.1320601 -0.06512794 0.024818236 0.20052125 -0.03301672 -0.08169164 -0.04995729 0.04015356 -0.018826395 -0.072968744 0.059882507 -0.07596481
I639 -0.19048227 0.08520878 0.08492056 0.11458194 0.01640484 -0.19545023 -0.00034686533 -0.012039393 -0.038960673 0.054400276 0.092510015 -0.05127147 -0.028408738 0.14675808 0.15458089 -0.03013344 -0.025258183 -0.16808021 0.08410823 0.0012763286 -0.105260216 0.027077978 -0.16499841 0.078177735 0.15507378 0.10146128 -0.049784526 -0.107437976 0.23785324 0.05328622 -0.007615118 -0.13041382 0.14243968 -0.011802722 -0.068380825 -0.0031241002 -0.03547288 -0.06315376 -0.042505052 0.067593716 -0.09627388 -0.07141568 -0.024398517 0.012219302 0.00043345444 0.057090893 0.050942533 0.12531236 -0.014942854 0.017651884 -0.07322584 -0.011115827 -0.035011947 -0.17797771 0.09883806 -0.25598174 -0.037287988 0.07784146 0.09291616 -0.13606496 -0.1293787 0.056447312 -0.02336227 0.020462643 0.16205795 0.022658408 0.14889178 0.012965904 0.014042705 0.034534395 -0.006815408 -0.04566169 -0.09303602 0.0855435 0.1306441 -0.12564026 -0.15247232 -0.19761354 0.032540806 -0.16820765 -0.03314309 -0.034336668 0.029031336 0.06949813 0.013135849 0.20243022 -0.12590009 -0.0856941 0.067997426 -0.12668486 -0.02356984 -0.1070811 0.09586913 -0.103395015 0.04018152 0.17633195 0.16246268 0.009139639 0.0296363 -0.087014884
D489 0.038261477 -0.1756513 0.088351734 0.117023125 -0.0041669393 -0.15977232 -0.049099702 -0.19566585 0.0017365187 0.0036885177 0.019946538 -0.20911849 -0.19749781 0.057311684 -0.03171573 0.018693132 0.05089889 0.10104413 -0.06393682 0.09485354 -0.16496961 -0.12055388 -0.0029139775 0.017200084 0.052821267 0.09210654 0.12470354 -0.036480147 0.11872828 -0.11356572 -0.0763868 -0.016627766 -0.031231735 -0.0032812294 0.025814367 0.0007830018 0.086620435 0.0016193433 -0.046153475 -0.15199721 -0.09021516 -0.21492344 0.12989408 0.104108684 0.13043182 -0.075999126 0.16023342 0.024668137 -0.02449709 -0.23398414 0.011132232 -0.033060357 0.02619902 0.045459215 -0.06887955 -0.070881665 -0.026540635 0.20191278 0.07089755 0.006599097 0.022028986 0.065913424 -0.050728645 0.12890172 -0.04504106 0.2339815 -0.021008102 -0.09135458 -0.1954411 0.069003776 0.049117766 0.045173753 0.00084559317 -0.048608318 0.217203 0.008651857 -0.18941666 -0.15612279 0.101749174 -0.1993169 -0.037420105 -0.041475933 0.0021520124 0.096437484 0.06446824 0.11156269 0.082261756 -0.048064735 0.042278398 0.008300221 -0.078533635 0.051606942 0.050085433 -0.04374455 0.096429504 -0.041600894 -0.035782818 -0.045287527 -0.10368818 -0.08091933
E785 -0.13420814 -0.16893734 -0.010625586 -0.048457984 -0.009561635 0.045279987 -0.062364813 0.04546044 -0.121467344 -0.028931517 -0.094620176 -0.060490362 0.068329 0.23638883 0.0266926 -0.034906887 -0.05987662 -0.0009774386 0.05185761 0.10173708 0.019712381 0.051331315 -0.04493778 0.020745222 0.043139163 0.0037264095 0.017811017 -0.08065526 0.086612254 -0.06372286 0.062909916 -0.115106836 0.16869539 0.046519406 0.059773587 -0.06454488 0.15596014 -0.04185678 -0.045507524 -0.029448077 -0.17181604 -0.014768295 -0.15085244 0.0362473 -0.09151315 -0.085111946 -0.10539561 0.12204075 -0.0024786554 0.08515554 0.08274125 -0.089195445 -0.14183167 -0.04743414 -0.116536945 -0.1818198 0.13885282 0.1296261 0.05127874 -0.038236998 -0.069316 -0.117529824 -0.08584633 0.04601568 0.17109069 0.037114747 0.11200566 0.17358059 -0.23027033 0.1498819 -0.032669917 0.014132299 -0.10384014 -0.04554112 -0.01230106 -0.13697055 0.02299166 -0.06745703 0.13072915 -0.1998602 -0.0059141237 0.10148389 0.0017324734 0.0011133255 -0.117279634 0.13110235 -0.038470395 -0.08153004 0.14534107 -0.13543755 -0.047189232 0.024397224 0.16990897 -0.22624275 0.048944682 0.18653414 0.023604555 0.031767223 -0.02379436 -0.12430926
R229 -0.025508283 -0.026209217 0.13691369 0.18056266 0.046254218 -0.1724755 -0.15891673 -0.20005782 0.12416396 -0.031195333 0.06255006 -0.12909448 -0.17105892 0.009955643 -0.051271163 0.09423202 -0.017654525 0.113407545 -0.01505535 0.019720104 -0.15437791 -0.17938411 -0.037827022 0.030631963 0.0458086 -0.02015668 0.18457001 -0.20689642 -0.13489985 -0.089911625 -0.18681467 -0.038605813 -0.032127723 -0.07842117 -0.038015388 0.010889705 0.020207273 -0.047509406 -0.11736113 -0.16366081 -0.0045637554 -0.1324893 0.03632987 0.09804336 0.046125844 0.04666175 0.09649905 -0.040425777 -0.03418678 -0.11739105 0.112139046 0.0981481 -0.040190276 -0.007454864 -0.13918456 -0.13556188 -0.020890046 0.12136186 -0.06713376 -0.039264224 -0.051377833 0.05560527 -0.023405775 0.10557004 -0.019717254 0.26884204 -0.034252487 -0.00786472 -0.003787456 0.04830963 0.04031624 -0.1476712 -0.059073746 0.16713247 -0.02255929 -0.11748921 -0.20550697 -0.15743376 0.15210524 -0.1804978 -0.11979553 0.02694262 0.0589074 0.03992881 -0.041517958 0.0009525492 0.020947557 0.01092648 0.051450405 0.07828699 0.0012106845 0.1095107 -0.034344286 -0.104911655 -0.03364431 -0.002602324 -0.13404334 -0.046827134 -0.007484278 -0.047603488
E162 -0.10963868 -0.10090453 0.1316061 -0.0055468036 0.08980421 0.06740234 -0.09661489 -0.08788181 0.028507685 -0.011942032 -0.046555635 -0.09695057 -0.03202693 0.108148985 0.10940967 -0.059002474 -0.08843045 -0.031510882 -0.0073358687 0.037263405 -0.09596073 -0.06825986 0.010746932 -0.07423062 0.103496276 -0.03856954 -0.17083652 -0.075943105 0.065483265 0.0693418 -0.028338952 -0.119975746 0.13942647 0.20159087 0.01976416 0.034419227 0.09062552 -0.1777677 -0.054572225 0.19345173 -0.20595776 -0.0040520537 0.018093977 -0.013354609 0.016441751 -0.011051091 0.04255243 0.080234624 0.039840307 0.029465884 -0.12287483 0.01321844 0.01501956 0.13227242 0.029065218 -0.18358217 0.11942429 0.07155871 0.06498751 -0.05163573 0.0086247055 -0.07640265 0.05175619 0.036974415 0.21840085 0.02865925 0.11740894 0.016474612 -0.057673078 0.045027968 0.014896189 -0.0557551 -0.07923616 0.031997826 0.060266018 -0.16003118 -0.060824826 0.0789609 0.04777403 -0.043100744 0.012023717 0.036024995 0.008441205 -0.057221644 0.11164607 0.20141205 -0.1832935 0.011383551 0.27875227 -0.25576654 0.028591681 0.19506036 0.060754597 -0.16146693 0.0010486171 0.17458887 0.03368488 0.078361206 0.051490206 -0.15372263
I509 -0.24438879 0.00020744785 0.12907147 -0.014043481 -0.04668355 -0.05244122 -0.041979797 -0.11427942 -0.056861594 -0.010505612 0.060915716 -0.07993495 0.037850242 0.16662462 0.15163217 -0.062204815 0.077518776 -0.077450074 0.06140147 0.0023658182 -0.13689701 -0.011439541 -0.097881265 -0.011341563 0.06463269 -0.028553108 -0.19058676 0.055342242 0.14512305 0.04055701 0.066413194 -0.089084975 0.17373165 0.015566466 0.08591152 -0.016539251 0.012260289 -0.16651593 -0.14955173 0.05984339 -0.012437173 -0.07981616 -0.051898327 -0.06964207 -0.046377294 0.07516802 -0.016773626 0.085407175 0.045171283 -0.11097355 -0.06527632 0.027569667 0.086945035 -0.054788627 0.0014899052 -0.20085673 -0.040421683 0.13222203 -0.053277925 -0.16155788 -0.17920262 -0.024706345 -0.015335944 0.024679001 0.16854015 0.065388165 0.112713926 0.065730974 -0.124226674 0.13820738 -0.041397564 0.0021006104 -0.032549135 0.06345937 0.083807334 -0.109643824 -0.077130176 -0.051865343 -0.013075438 -0.14669895 -0.09817764 -0.058166996 -0.013778407 0.00024311063 0.11541537 0.2344584 -0.16881448 -0.09357193 0.22803752 -0.17062658 -0.043380592 0.0021626228 0.12524453 -0.13845225 0.12261207 0.14069384 0.10086462 0.009107727 0.0694539 -0.10083172
E11 -0.012292693 -0.15373239 -0.07572558 0.04502863 -0.024293454 0.044755403 -0.08866925 -0.022351284 -0.018856509 -0.08392027 0.011923856 0.16581185 0.051065315 0.07607545 0.0404508 -0.07251307 -0.30580422 -0.034765236 -0.09773094 0.16125062 -0.018224383 0.02499639 0.07662106 0.11001542 0.09598822 0.024834346 0.00627403 0.078488976 0.036815204 0.0326401 -0.12546562 -0.00027071885 -0.11463841 -0.028634554 0.060001988 -0.09339281 0.0215417 -0.22422127 0.015432684 -0.11099342 -0.078048356 0.0098806815 0.13930318 0.057314783 -0.055776455 -0.13613953 -0.1015102 -0.0063320166 0.065193035 -0.08644473 0.023859149 0.050383188 -0.20487073 -0.045529027 0.07355336 0.057036094 0.05573259 0.009349904 0.03143463 -0.05662464 -0.20083202 -0.086288325 -0.15363012 0.17148715 -0.0508521 0.09109285 0.08898037 -0.044722278 -0.03509469 0.022883369 0.095086955 -0.050668735 -0.080595315 0.041457076 0.06858412 -0.025039792 0.15821452 0.12240817 0.15624587 0.08443123 0.021681825 0.07689114 0.009467965 0.012233592 0.128617 0.045368142 0.049560912 -0.034588035 -0.11756521 0.026185308 0.08927284 -0.23570733 0.1727485 -0.13126844 -0.1806448 0.033643797 0.21660194 0.009761627 -0.07153548 -0.1961186
H269 0.026860362 -0.17478016 -0.0029943264 0.062484443 -0.0706234 -0.014677088 -0.007608616 -0.07239884 -0.12192781 -0.039116904 0.14316982 -0.011983982 -0.010117625 0.10829547 0.01009989 0.047317784 -0.12344142 -0.016166797 -0.11148084 -0.07861291 -0.09327292 -0.024182195 -0.08196514 0.0056348215 0.0050945603 0.042370107 -0.028838668 -0.057001997 0.13970907 -0.08293205 0.07717878 -0.08590632 0.06243393 -0.1211247 -0.10648419 -0.04075047 -0.0073676454 -0.0005605885 0.05029155 -0.087243676 0.021363333 0.0502175 0.028824931 0.24903315 0.05089899 0.0074959565 -0.13715938 0.12921663 0.11467481 -0.15879652 -0.08989186 -0.08538158 -0.07764571 0.02326185 0.08886667 -0.1457964 -0.0673944 0.0049603553 0.03489044 -0.13422363 -0.07843232 -0.02703752 0.14485653 -0.0450694 0.13606173 0.025370939 -0.30123907 0.021278026 -0.11706124 0.043921262 0.084034696 -0.020807706 0.073267095 -0.052547485 0.041673508 -0.09193567 -0.13538021 -0.27670458 0.13038759 -0.12912832 -0.00039502684 0.20347513 0.11860687 0.06264475 -0.023402788 0.2001411 -0.02506258 -0.07777631 -0.010210239 -0.13154158 -0.13865177 0.115259066 -0.107464224 -0.05897095 0.072544634 0.1872721 0.11599641 0.10765193 -0.003630311 -0.032351956
C169 0.02548562 -0.08332781 0.025549509 0.16054055 -0.048385948 -0.087186284 0.05329214 -0.09526228 -0.0591639 -0.18395069 -0.004353763 -0.11322367 -0.121600606 0.024176916 -0.046894826 0.057700478 -0.02416995 -0.058469567 -0.013610216 -0.10642021 -0.098352715 0.08759421 -0.11794936 0.07001252 0.09076815 0.1332571 0.05493591 -0.10424778 0.10140143 -0.08339824 0.041385345 -0.11966309 0.011502576 -0.06483609 0.023517836 -0.021814467 0.007007005 0.030952455 -0.15539446 -0.0104508 0.10169501 -0.2694592 0.024965066 -0.008166961 0.09253644 -0.08438911 0.14109994 0.04841909 -0.08517358 -0.058738872 0.036876537 0.12480043 -0.031436864 0.0791263 -0.22914727 0.0040790453 -0.079080276 0.14533424 0.04162097 -0.17817508 -0.011605939 -0.06838193 0.038581368 -0.07204886 0.056036647 0.08431597 0.037763853 0.116352655 -0.14407393 -0.0042977817 0.0075450386 0.1751703 0.14843121 -0.12703827 0.124919035 -0.12679005 -0.21596086 -0.26854765 0.17821212 -0.09794363 -0.088677354 0.012169455 0.14224358 0.06092017 0.045864623 0.075867206 -0.018035142 -0.052207883 -0.05843398 -0.02424936 -0.15032579 -0.026189022 0.028482199 -0.13952863 0.05636645 0.103182554 -0.14247656 0.038306825 -0.016608348 -0.05715091
I10 -0.28484786 -0.05024934 0.098490305 -0.0003354619 -0.03129777 -0.050260603 -0.07359316 -0.02867769 -0.12731782 -0.030888004 0.0074222903 -0.052893586 -0.038629413 0.2326316 0.091123015 -0.06976135 -0.07944894 -0.08128444 0.03442966 0.06906863 -0.015574487 -0.047597982 -0.061959945 -0.013273411 -0.026712649 0.019084645 -0.091332555 -0.031136774 0.16883424 0.008180595 -0.014280054 -0.091247074 0.17738178 -0.04949138 0.080258764 -0.107798606 0.058522288 -0.09525107 -0.092725635 -0.004087174 -0.111100145 0.010123228 0.0027947829 0.031151293 -0.13538383 -0.026666509 -0.07208947 0.11366092 0.014567131 0.00061060535 0.035706785 -0.008746625 -0.057214204 -0.09928041 -0.020141508 -0.17348868 0.076469064 0.0912363 0.065518245 -0.063140355 -0.12511076 -0.033182617 -0.11035948 0.01796354 0.16831903 -0.04559252 0.13658962 0.18357477 -0.22077526 0.06527591 0.013757299 -0.0022638126 -0.10412607 -0.05073864 0.017217746 -0.14335397 -0.03271198 -0.04324515 0.15293172 -0.11509933 -0.04735734 0.059192166 0.028320538 0.05118801 0.009923975 0.2292569 -0.11791854 -0.11585864 0.13701853 -0.18258758 0.06672484 -0.04183408 0.11620852 -0.24549024 0.12520392 0.20341946 0.08746723 0.06258755 -0.04370555 -0.11427703
R074 -0.16871871 0.10330682 0.15819705 0.14330669 0.037796594 -0.12187525 -0.20495424 0.0044313255 0.08260251 -0.045332022 0.04122391 -0.063181974 -0.023370568 -0.022587862 0.16836542 0.023904186 0.0049730674 -0.10046233 0.0754766 -0.12413545 -0.10828819 -0.07879531 -0.039614048 0.08134926 -0.04525573 -0.056759384 -0.01743853 -0.17646085 -0.023791278 0.0005447689 -0.03836645 -0.020700479 0.054131728 0.065847576 0.17434107 0.003065324 -0.10547623 0.0247776 -0.040986918 0.058424026 -0.16399524 0.042894952 -0.017559486 0.015851244 -0.12638356 0.17349212 0.05991397 -0.09504625 0.034388747 -0.08667224 0.009922104 0.10409566 0.017011745 0.015545393 -0.025409644 -0.12382732 -0.054524817 0.11575997 -0.12692335 -0.17383385 -0.24208549 0.096466355 0.07817261 0.021282636 0.1628096 0.22385806 0.04681104 0.029437063 0.03949823 0.1164104 0.0056152535 -0.138059 -0.054674264 0.10661562 -0.051282234 -0.23765624 -0.07428893 0.065884866 0.0134673165 -0.013362503 -0.18402846 -0.15114021 0.061408784 -0.07278 -0.05483755 0.0899086 -0.10585734 0.00531863 0.116510816 -0.13667837 0.09509775 0.18466368 0.078509234 -0.08533583 -0.077852346 0.11308346 0.020740792 -0.0343515 0.06748348 0.024199577
R42 -0.11967559 -0.012818482 0.061629068 0.001202905 0.08713014 -0.23732516 -0.15339601 0.009002399 0.11805463 -0.0020112034 0.05642426 -0.008091612 0.054856647 -0.11475217 0.2387231 0.071097195 0.015099532 -0.16738725 0.08317739 -0.04502046 -0.00973479 -0.03581817 0.04849188 0.07916962 0.029324653 -0.06276873 -0.003006535 -0.18984775 -0.01231255 -0.022321025 -0.050200466 -0.04741098 0.07301489 0.071318686 0.15050642 0.058279738 -0.13343436 -0.0040526222 -0.028221177 0.042525932 -0.25278038 0.18154313 0.033481058 0.06387472 -0.06518439 0.08954412 -0.009997911 0.027594727 0.2051136 0.02791083 0.0146296425 -0.08224563 -0.080515765 0.03725489 -0.03507453 -0.27179286 0.0764027 0.013220222 -0.004924157 -0.044140138 -0.12939925 0.07060864 0.023217555 0.08791027 0.15963958 0.17701498 -0.050168853 -0.033376895 -0.011052035 0.10167455 -0.101749085 -0.13561204 -0.05609592 0.046034172 -0.016785666 -0.20238853 -0.11538769 0.017634468 0.07098254 0.010217821 -0.087195136 -0.08346543 0.08275905 -0.08023201 -0.02598515 0.15677516 -0.12272424 0.08246647 0.14109613 -0.09928585 0.029874515 0.20602033 0.04508588 -0.057044454 -0.13887922 0.059074603 0.08440103 -0.034285698 0.11390734 0.010770245
R402 -0.16678801 0.08183758 0.09422105 -0.0032683027 0.070959374 -0.19948325 -0.14617348 -0.04125101 0.14315791 0.046241507 0.08984333 -0.013415895 -0.025638813 -0.054388948 0.23048596 -0.04953876 0.05851687 -0.03801395 0.1134185 0.044374287 -0.15943018 -0.06363602 0.0013339734 0.026642889 -0.018186634 -0.1629476 -0.1426948 -0.067066565 0.092371576 0.10455689 -0.037065882 -0.16495493 0.14482914 0.060063105 0.07358433 0.020821491 -0.07032159 -0.09612188 0.011552084 0.04410246 -0.23344198 0.05892823 -0.013109323 0.06790306 -0.061584637 0.25109684 0.09047 -0.002504323 0.1479181 -0.051896714 -0.15055116 -0.0031906914 -0.03204808 0.09465915 -0.022645386 -0.119827375 -0.0035729073 0.06307029 -0.001446142 -0.09231253 -0.19510661 0.11527014 0.08812073 0.05569592 0.20954019 0.11933706 0.07711174 -0.040225256 0.088951886 0.048741527 -0.09470651 -0.18927248 -0.0093190605 0.06950803 -0.012567217 -0.07797904 -0.049735025 0.08505357 0.023085032 -0.070246726 -0.0119202435 -0.034187127 0.06801274 0.0340834 -0.010744696 0.08257233 -0.17557587 0.060003683 0.17933218 -0.15362658 0.021342691 0.10372445 0.05853134 -0.06470494 0.032870833 0.111137144 0.10975308 0.03309719 0.13674465 -0.046711378
J690 -0.040690795 0.03005263 -0.1863622 -0.07780695 -0.054447412 -0.039410815 -0.015187149 -0.084745236 0.054758165 0.09912269 0.15435915 0.07009775 0.041340947 0.19753711 -0.0043988926 0.061859455 0.12526846 -0.05344288 -0.031337086 -0.04727738 -0.04343508 0.25141487 0.059747912 0.016294908 0.04490811 -0.012859223 -0.022019755 -0.08258425 0.08587234 -0.07020314 0.1315536 -0.16367836 0.037865907 -0.048113175 0.15879175 -0.06837487 -0.12039797 0.034135856 -0.014721858 0.035054836 0.04949466 -0.04388493 -0.013024294 -0.10155248 -0.031072382 0.18023972 0.07423098 -0.041892845 -0.0077315727 -0.028759908 -0.014335479 -0.1393734 0.007021901 -0.04151743 0.07032077 0.077120855 -0.019326042 0.06655681 0.00829243 -0.14826018 -0.15488286 0.08572955 0.22286838 -0.10095433 0.15856476 0.027110728 0.12161441 0.20104839 0.043586377 0.009088381 0.07296185 0.02485333 0.09720279 -0.069775224 -0.06472733 -0.072813116 0.019588042 0.08258407 -0.010927149 0.12130685 -0.102821365 -0.16994475 -0.027207155 0.17381774 -0.09452453 0.08265557 -0.28433737 -0.12513967 0.09979153 -0.022400543 -0.10846948 -0.102738425 0.034636658 0.08685845 -0.004214826 0.28706548 -0.008547874 0.011969844 -0.040018592 -0.033747964
D259 0.031554893 -0.0700609 0.18242571 0.1482981 0.015884666 -0.16768385 -0.11689277 0.04285181 -0.13096695 -0.028163103 -0.13598217 -0.0825627 -0.072651565 -0.10807333 -0.027559208 0.022547314 -0.056251843 0.080803744 -0.018778631 -0.037293524 -0.10997702 -0.16833362 -0.1292717 -0.0014044507 0.04742611 0.1058343 -0.0026037286 -0.09453538 -0.02492583 -0.03348181 -0.05158387 0.02130014 0.085527755 0.069368675 -0.12947012 0.098583035 0.027033828 0.033769473 -0.056591943 -0.09031265 -0.055374436 -0.12643664 0.054645065 0.13599578 -0.017527234 -0.0858886 0.057709273 0.18661241 -0.013935734 -0.183038 0.0017646787 0.045624416 0.085783124 -0.019183723 -0.18766119 -0.162071 -0.030255768 0.06859957 0.032471426 -0.035830855 -0.064484715 -0.07899666 -0.054778516 -0.015915737 0.010974586 0.061655596 -0.09587718 0.003659809 -0.09712225 0.11085004 0.067269474 0.09936218 -0.010671327 -0.053679578 0.049399596 -0.056066334 -0.25719377 -0.21438682 0.06417344 -0.110596605 0.010033189 0.16409428 0.05016844 0.19213016 -0.08729303 0.1554193 0.041975427 0.107942834 0.05221939 -0.057260837 -0.07755219 0.18477273 -0.1683281 -0.23417686 0.010772972 0.15811646 -0.042925783 0.050875697 -0.114410535 -0.05406522
C61 0.029176198 -0.13720618 0.048904587 0.15851475 -0.06584347 -0.029319512 0.15263307 0.002076451 -0.043044414 -0.19728288 -0.09712133 -0.16052057 -0.08684978 0.0109534105 0.046039067 -0.007885129 0.027603187 0.034020014 0.043200605 0.042614333 -0.10508121 0.031752802 -0.022126233 0.009506609 0.10282886 0.13370554 0.08239 -0.04038345 0.10019623 -0.089009635 0.01057212 -0.055519186 0.042031195 -0.057479694 -0.005639768 0.099044025 0.032943558 0.07660111 -0.115202986 -0.012042494 -0.049105797 -0.1744507 0.039268963 -0.011153856 0.038793527 -0.16930331 0.03975041 0.0792984 -0.094763495 -0.072211295 0.020934654 0.13331361 -0.041939326 0.0717472 -0.14388141 -0.100795984 -0.040266942 0.09362501 0.04765309 -0.13128519 -0.002825103 0.009625993 -0.04473586 0.07877213 0.025249502 0.10653183 0.036253884 0.17769836 -0.22541983 0.05246962 0.013016074 0.18120739 0.053352427 -0.12803453 0.24924585 -0.12001758 -0.23856302 -0.24907088 0.17315732 -0.12673804 -0.08738138 0.06715854 0.06564263 0.021128036 -0.030682052 0.1700624 0.17973109 0.0038734856 0.07513792 -0.030822594 -0.15737283 0.064672574 -0.009511335 -0.08347135 0.08416446 0.110098734 -0.034196634 -0.020909347 -0.021852907 -0.10413167
R630 -0.09366763 -0.15954594 0.092452765 -0.011702683 0.08730477 -0.0450743 -0.23349763 -0.021868443 0.12429269 -0.0031499707 -0.026057629 -0.0054510054 0.015644016 -0.043576077 0.13950738 0.034085628 -0.00905706 0.03296013 0.056988794 0.05984325 -0.028267821 -0.03956954 0.0667525 0.13453647 0.04166633 -0.094157256 -0.015251219 -0.17066036 -0.026271202 -0.046894867 -0.07786324 -0.000666888 0.1969584 0.08624427 0.22241454 0.09745623 -0.022509824 -0.054965828 -0.014217232 -0.027133983 -0.20977947 0.081376895 0.004475632 -0.01702984 -0.252238 0.076798655 0.019446582 -0.12703899 0.047160834 0.031307686 -0.01765891 0.025930475 -0.11057061 0.14278676 -0.09242356 -0.10943419 0.06159049 0.1075669 0.0035846848 -0.099161394 -0.12821671 -0.011981955 0.10747255 0.017086007 0.24474694 0.1252352 0.09504056 0.043915775 -0.073211595 0.19092393 -0.071402386 -0.1676488 -0.047882188 -0.06427591 0.021941448 -0.14880443 -0.009435526 0.1489983 0.010259971 0.04107552 -0.11091328 -0.05323195 0.11245595 -0.09303872 -0.07494884 0.05346997 -0.17367417 0.06509272 0.0628124 -0.051855743 -0.15007347 0.23264176 0.03713412 -0.07652427 -0.086239114 0.086035885 -0.014312749 -0.084440015 0.012252296 -0.085009955
R002 -0.10219904 -0.05321754 0.0783299 -0.0019904675 0.093652464 -0.037179317 -0.16598429 0.04937078 0.14055583 -0.0638901 -0.0101567255 -0.054379754 0.028453186 0.03828293 0.18688135 0.019727161 0.043704577 -0.14747298 0.03705966 -0.006387298 0.036890827 -0.07492381 0.07080215 0.1369389 -0.008119966 -0.097909786 -0.009370209 -0.16139804 -0.03524806 -0.03937388 -0.018579908 0.059655495 0.07030591 0.096933335 0.23210236 0.16984905 -0.077350475 -0.028393025 -0.09568705 0.083380386 -0.27613387 0.15396738 0.055349756 0.0098198345 -0.17332146 0.121668674 -0.022742651 0.03460651 0.15444802 -0.08535976 -0.007903991 0.009006076 0.032410406 0.04648125 -0.009244143 -0.052575603 0.11185942 0.03574147 -0.08839152 -0.012843113 -0.17842914 0.06633803 -0.0017055261 0.048373155 0.16286314 0.15154879 0.047759295 -0.012683606 0.03749136 0.13416529 -0.03714624 -0.14285904 -0.08557826 0.031080758 -0.052453343 -0.119248874 -0.105684124 0.046076268 0.013463271 0.013810817 -0.13240102 -0.13311213 0.12393969 -0.08774075 -0.077410616 0.19557858 -0.0618174 0.03196975 0.17562874 -0.11025003 0.027252635 0.24810307 -0.0016992956 -0.1099545 -0.11199288 0.11647464 0.074283026 -0.09803554 0.10196296 -0.043113183
K921 -0.071475066 -0.13766707 0.14618833 0.046538334 0.078399874 -0.15514165 -0.26298302 -0.0003031125 0.043346725 0.027872903 0.08701226 -0.09214669 -0.034374535 -0.028791575 0.028060708 0.031758472 0.04283999 0.01782142 0.09749504 -0.11777776 -0.20952764 -0.12204406 -0.12119335 0.07710154 0.0029975588 -0.054175097 0.023287877 -0.22180447 -0.040365916 -0.023942834 -0.11201789 -0.051016238 0.08375758 0.14104632 0.19031304 -0.011280246 0.032632135 -0.045544516 0.024018759 -0.054886427 -0.11296246 -0.017677603 -0.01694989 -0.016322637 -0.17464654 0.14728566 0.07475482 -0.11679281 -0.07127025 -0.055689085 0.033223316 0.117636494 -0.0554425 0.104297034 -0.18700516 0.024686636 0.09300519 0.21403709 -0.10010954 -0.11195536 -0.10706333 -0.042346 0.14860168 0.051425576 0.047259506 0.03969316 0.06818639 0.06596409 -0.054832656 0.08886599 -0.05514514 -0.12100617 -0.0091332635 0.056928504 0.040807094 -0.09263342 -0.11095481 -0.07909877 0.026491564 0.019980237 -0.1991347 0.0026753228 0.12218441 0.08488131 -0.02018612 0.041227594 -0.09226479 0.1254006 0.055387907 -0.03927983 -0.07940859 0.28397712 0.029368807 -0.126696 -0.10201622 0.11889528 0.018122844 -0.1061128 -0.04219428 0.06044595
M2559 -0.1433683 -0.20027924 0.13682407 -0.017968558 0.03794106 -0.03944025 -0.2664858 -0.028437575 0.13497578 0.0030098003 -0.021160249 -0.011368726 -0.104067825 -0.032593943 0.16542979 0.0060796873 -0.037241563 -0.008660195 0.09413272 -0.040340737 -0.029638255 0.038919833 -0.036765724 0.18224014 -0.011075406 -0.119293384 0.025062745 -0.21718054 -0.06252581 0.029974036 -0.20380788 0.006388658 0.032038186 0.058341827 0.15126294 0.13304186 -0.045044113 -0.066734776 -0.032004796 -0.06847113 -0.10028302 0.05322981 0.0010799071 0.06949215 -0.16683927 -0.0017311161 0.02642542 -0.0940884 0.111169934 0.028747357 -0.011052839 0.009877738 -0.16143867 0.095831476 -0.08135351 -0.21821585 -0.10639385 0.10179606 0.03472935 -0.11507381 -0.067203075 0.108810104 0.062033847 0.046703976 0.15215887 0.12048225 0.03132763 0.124451354 -0.05716216 0.15539622 0.019126358 -0.117928095 0.04117747 0.034315765 -0.024551501 -0.18322062 -0.0069721662 0.0022343665 -0.031557426 0.022391183 -0.14634533 -0.13160345 0.0362587 -0.1788815 -0.14917158 0.04409603 -0.005962892 0.008830494 0.17545685 0.0661429 -0.0051774452 0.2089888 -0.045136623 -0.017445033 0.097869895 0.056690134 -0.08081373 -0.115706354 0.05200308 -0.09384538
K769 -0.08097565 -0.1604972 0.0958522 -0.016328398 0.007075095 -0.01811148 -0.15590139 -0.14124723 -0.01736865 -0.004839041 0.03145033 -0.10287611 0.0041993386 0.09625458 -0.0005429177 -0.04776393 0.0108945435 -0.05380124 0.10919238 0.06431832 -0.18677664 -0.065334104 -0.11688125 -0.04872691 -0.0019345173 0.016142922 -0.048188496 -0.1205097 0.21159698 0.010721162 -0.04767934 -0.10399676 0.066609696 0.08621496 0.09868082 -0.03867189 0.062595256 -0.13529971 -0.040488426 -0.011662263 -0.19477089 -0.14656223 -0.02124891 0.0403866 -0.03698029 0.03754483 0.03659073 0.012441372 -0.20401083 -0.15829244 0.028753411 -0.033833522 -0.010262901 0.14649916 -0.1519695 -0.20923105 0.010748752 0.15831736 -0.004814417 -0.009430533 -0.0798329 -0.030662518 -0.042170875 0.08869791 0.23036993 0.13078387 0.11067916 0.18651332 -0.1919778 0.11239771 -0.015865173 0.021772692 -0.004650004 -0.04306885 0.14144605 -0.15883501 -0.03635726 -0.030572025 -0.04625431 -0.06269875 -0.10387486 0.07354575 0.10106869 0.09780243 0.03156076 0.101418436 -0.15824631 0.01748376 0.18178993 -0.035050727 -0.1389119 -0.048094444 0.12889673 -0.10930346 0.10695778 0.079382636 -0.031140529 -0.07574474 -0.001041698 -0.15556987
C20 0.029070262 -0.076105975 0.07119087 0.18221164 -0.047158312 -0.12703605 0.052685298 -0.03472986 -0.07974023 -0.096404485 0.05123224 -0.061175466 -0.07999479 -0.013716414 0.039466515 0.019983392 -0.073572375 0.11215679 -0.028677285 -0.14826596 -0.092377044 0.021215003 -0.10180022 0.06895642 0.08381473 0.15845142 0.08207988 -0.106263556 0.12445319 -0.08507839 0.05919874 -0.1526402 0.0540634 -0.20475738 -0.018849043 0.11724162 0.030706046 0.12743384 -0.025896274 -0.05082551 0.0503944 -0.23302421 0.07457114 0.05408449 -0.04061373 -0.059936296 0.050455663 -0.038457137 0.013124382 0.014460784 -0.011588022 0.081560485 -0.04664313 -0.050505713 -0.14294912 -0.016547337 -0.028713401 0.16274233 0.060767934 -0.2000889 -0.053980827 0.004542236 -0.004256808 0.04678069 -0.06966469 0.013174491 0.033726044 0.094107375 -0.081364825 0.060505338 -0.12687057 -0.012742892 0.12730414 -0.17050911 0.1739097 -0.066722296 -0.25182632 -0.26083705 0.22347698 -0.14255041 -0.074127235 0.020247983 0.016631274 0.11260907 -0.042855617 -0.008398141 0.10187154 -0.09471996 -0.075874396 0.062971726 -0.202103 0.001063438 0.079346314 -0.107567474 0.10565882 0.0863191 -0.14091669 -0.010679716 0.06464729 -0.016269427
F03 -0.18402955 0.005620829 -0.02674946 0.029383956 -0.10681603 -0.058685783 0.07300558 -0.13483283 -0.009426543 -0.18029007 0.114534624 0.1063741 0.048962627 -0.027027462 0.11727425 0.061595567 0.040921796 -0.13117974 0.081164345 0.079975486 -0.10330106 0.14429314 -0.13504061 0.059999783 0.12878175 0.023059953 0.036632 -0.094359696 0.23904005 -0.10775484 0.065697655 -0.14660063 0.13693836 -0.06569553 0.14109448 0.012121896 -0.022578286 -0.009044662 -0.13976447 0.007853096 -0.20026675 -0.023654278 0.04483937 0.03689114 0.058639515 0.0025145523 -0.085632786 0.007998478 0.016676541 0.16980016 -0.027522495 -0.08456229 -0.061177257 0.039880447 -0.053214896 -0.32588235 -0.109385535 0.11069816 0.09110594 -0.13030525 -0.10273234 0.011648739 -0.07566242 -0.09598277 0.2676075 -0.0325929 -0.037962373 0.066041365 -0.05624455 0.14115028 0.012446473 -0.012754425 -0.08180431 -0.12931328 0.09396518 -0.0630734 -0.02791877 0.029706331 0.12523933 -0.010425718 0.0468377 -0.000993639 -0.015696479 0.0004503728 0.03500678 0.24505918 -0.068799675 -0.035539024 0.026413867 -0.07680809 -0.047557555 0.029957367 0.13285299 0.0061237924 -0.008395356 0.13619848 0.07673976 -0.11849159 0.06770441 0.02807874
M8199 -0.086631045 -0.1716235 -0.039496027 0.068887495 0.060310677 0.040336426 -0.02801456 -0.14066823 -0.050086 -0.091500804 -0.080792785 -0.028610693 0.06747313 0.07532748 0.13530746 0.05126916 -0.095109075 -0.017425075 0.17621922 0.08517305 0.07353025 0.19838627 -0.026358154 -0.012637015 0.014680541 -0.041333187 0.046157822 -0.11976455 0.11192757 -0.09283724 -0.015074581 -0.118619725 0.113704264 0.061003804 -0.0314604 0.101264834 0.07445706 -0.13743654 -0.14551254 -0.04491158 -0.043260597 -0.096345894 0.029575104 0.05997165 0.027969148 -0.16002934 -0.10167189 0.1716527 0.027185522 0.05458801 0.05954506 -0.100151144 -0.12076424 0.06723865 -0.01570677 -0.22532508 0.027374454 0.07908687 0.07176221 -0.037837338 -0.030001618 0.070299044 0.03482055 0.0444654 0.14862546 -0.047850955 0.017843176 0.15921035 -0.19681668 0.04915013 -0.02006959 0.12913977 0.030079024 -0.09697034 0.019381998 -0.093868285 -0.028430654 -0.19122049 0.14568956 -0.042169202 -0.013494793 0.01754945 -0.03422212 0.028847456 -0.079932675 0.1626667 -0.09017826 0.00442529 0.16858748 -0.06139765 -0.11474369 0.11139759 0.002249676 -0.19597204 0.1411008 0.18138781 -0.12489382 0.17747758 -0.056563262 -0.1899706
K121 0.02065905 -0.08990977 -0.05210267 0.02455746 0.0063924817 -0.08763308 -0.1860801 -0.117614 0.0549701 0.1510163 0.11092445 -0.01284811 -0.0853216 0.066975825 -0.039925195 0.06375503 -0.15964082 0.021127215 -0.046225652 0.09890325 -0.1160478 0.051822167 -0.077729516 0.04857615 0.19399828 -0.03465849 0.035008203 -0.24389699 -0.090756 -0.11134227 -0.20378205 -0.104401864 0.101458676 -0.017098323 0.115546115 0.06375828 0.011356264 -0.05706276 -0.09093425 -0.012013021 0.05596719 -0.058082704 -0.013966533 0.04738921 0.021240031 -0.007511182 0.086296745 -0.119729586 -0.11151083 0.07251325 -0.022251196 -0.025444161 0.020010917 0.07243265 -0.13093974 -0.24395679 -0.03607023 0.24300899 0.19969605 -0.1331236 0.055275064 0.14807661 0.1500471 -0.1218702 0.13954598 -0.010182545 0.009064324 -0.0025128415 -0.004395457 0.084108636 -0.08611897 0.009961703 0.1805275 -0.0063932976 0.062106304 -0.05917716 -0.06055213 -0.09000815 0.026258131 -0.122841 -0.115862936 -0.088610396 0.060684208 0.007983825 -0.11626552 0.046929587 -0.03123156 0.036582585 0.04964769 0.10738668 -0.06664763 0.2822271 -0.04911347 -0.032372933 -0.0798557 0.044646505 0.0055149444 -0.1455613 -0.0053211735 -0.11286736
R13 -0.12927842 -0.035140507 -0.0030287665 0.038352236 -0.0011576561 0.015565556 -0.1685953 -0.11547256 0.076221526 -0.0005039567 0.069041915 0.09566656 0.014385794 0.047436778 0.06321781 0.07388291 0.013054609 -0.0032504431 0.056357246 -0.037492532 -0.16467266 -0.03481027 0.07601602 -0.0072759814 0.07241986 -0.09624749 -0.00034107175 -0.17597009 0.046908695 -0.11570474 0.03163387 -0.09989834 0.17979856 0.038684014 0.26177981 -0.03778416 -0.11411585 0.027390422 -0.024001574 0.0026807806 -0.14329012 -0.029244345 0.09377115 -0.08400711 -0.07185591 0.19246271 0.06103687 -0.08758362 0.026690671 -0.034979682 0.07936626 -0.031701032 -0.047809947 0.08411738 -0.11026634 -0.21991897 -0.04327065 0.1880648 0.0025812387 -0.12701498 -0.24155745 0.03433147 0.23242846 -0.0766229 0.18508536 0.117464304 0.028547704 0.006240049 -0.066771254 0.18229705 -0.03547495 -0.08173175 0.088892356 -0.013266734 0.0030268035 -0.10659088 -0.10999229 0.0801348 0.047641184 0.041986633 -0.07114201 -0.06379765 0.09501608 0.024932513 -0.07859088 0.112917624 -0.2703092 0.023932884 0.067591086 -0.050835975 -0.021276549 0.15173428 0.06635505 -0.036377434 -0.051209938 0.1835534 0.01830515 -0.09960211 0.06255686 0.018338045
I209 -0.18615736 0.16275877 0.13346857 0.11545682 0.027025895 -0.17936026 -0.082312465 0.0021998594 0.0117635885 0.009707453 -0.0034442747 -0.03939647 -0.010390532 0.1585173 0.12346261 0.06360655 0.023934787 -0.09821845 0.025865968 0.0035175802 0.026059918 -0.03152718 -0.10554387 0.06334625 -0.0043472983 0.1188545 -0.052051604 -0.029106285 0.13238755 0.028305396 0.061390627 -0.07983027 0.15637292 0.0108183585 0.12799196 -0.027851447 0.03241695 -0.03386157 -0.10883139 0.07931385 -0.10818624 -0.0006929377 -0.056131843 0.028435128 -0.11944121 0.032792673 0.009538616 0.017926075 0.12751986 -0.13415806 -0.056030132 -0.020747438 0.0588806 -0.10652063 0.048058327 -0.2617675 -0.07921673 0.15722689 -0.020008285 -0.1694019 -0.18407068 0.040136807 -0.03188304 0.030746797 0.102578744 0.13761559 0.1425967 0.052804716 0.015956484 0.12843512 -0.038986757 -0.05651779 -0.10153687 0.02941155 0.07811005 -0.18023445 -0.07853261 -0.18706472 0.0653377 -0.1814665 0.023701487 -0.048589192 -0.038898915 0.022525078 0.01727314 0.14309363 -0.12658048 -0.01395755 0.18663257 -0.21409263 0.08889302 -0.042311255 0.10831842 -0.15164743 -0.010589063 0.09486758 0.12689433 0.13051598 0.09314257 -0.11487275
R060 -0.13169469 0.022340253 0.048805386 0.024178553 0.034078155 -0.044484347 -0.22924529 0.013727589 0.14161439 0.021479813 0.08460876 -0.05620435 -0.0023446444 0.010006143 0.15541124 0.03350626 0.04029649 -0.04789771 0.040731195 0.019959206 -0.10363247 -0.058433235 0.017825186 0.08009282 -0.023885423 -0.15737444 -0.061371036 -0.13739938 -0.09143332 -0.018971235 0.040696766 -0.06007395 0.10175631 0.062153246 0.19544214 0.014255515 -0.047145832 -0.08734321 -0.011685933 0.034643512 -0.18024407 0.13470732 0.049494345 -0.03316977 -0.15882142 0.21113598 0.07895977 -0.04351448 0.0664431 -0.04348864 -0.0123693505 0.06164907 0.0425069 0.021072395 -0.07377871 -0.13178995 -0.015857454 0.10128116 -0.116696216 -0.16146365 -0.17710456 0.12345849 0.07888469 -0.013443112 0.19259243 0.22237365 0.07348392 -0.035530094 0.0635917 0.14097586 -0.062066454 -0.22484234 0.031869758 0.10955241 -0.03035508 -0.07634987 -0.105917096 0.11299898 0.013920257 0.01138234 -0.13800265 -0.14711677 0.05954693 -0.12534025 -0.050842665 0.18149042 -0.13008708 -0.024899205 0.22918838 -0.13906075 0.042924732 0.14747576 0.036199685 -0.034502625 -0.05913017 0.07573432 0.012155976 -0.021760644 0.08461935 0.014923906
R471 -0.041934747 0.0026158802 -0.04075817 0.027179359 0.04495719 -0.14904866 -0.06221636 -0.15847145 0.1577488 -0.085707456 0.09666145 0.088013425 0.016795073 -0.06394311 0.13956203 0.09543288 0.015125875 -0.07380624 -0.048468772 0.047234748 -0.029238632 -0.099070534 0.10950004 0.004446494 0.08542736 -0.025131028 -0.0043243687 -0.17865768 -0.005410747 -0.034803014 -0.04493558 -0.06405962 0.14396815 -0.04197746 0.123098284 0.025765767 -0.16898897 0.04521849 -0.12883486 0.024428891 -0.21158436 0.073261276 0.07558005 0.10062402 -0.09006726 0.12179661 -0.03819082 0.05684788 0.22390427 -0.0044582686 0.006629743 -0.051413074 -0.06149018 0.14716184 -0.14111304 -0.19464506 -0.01767722 0.07258626 0.011862899 -0.12763433 -0.09931525 -0.035955906 0.119276926 -0.031225486 0.109750584 0.14614023 -0.09866306 -0.13805276 0.061358504 0.16021577 -0.06783534 -0.2866664 -0.0613975 -0.016485002 -0.038477864 -0.061074354 -0.18987815 0.10936058 0.096103884 -0.06057512 0.05071053 -0.06776294 0.031756185 -0.07733654 -0.027705261 0.07562009 -0.22875778 0.024741342 0.032341328 -0.09407032 0.09953147 0.05660734 -0.025174446 0.02398963 -0.09375389 0.13008766 0.04580776 -0.11902936 0.16224174 0.036520448
C159 0.015390394 -0.08250294 -0.0018389215 0.1475487 -0.08889872 -0.11065071 -0.037597798 -0.08202881 -0.09693329 -0.13315998 -0.022353126 -0.19227885 -0.0713213 0.0081343185 -0.052242927 0.121358596 0.00680293 0.06349811 0.021802166 -0.09291055 -0.12852809 0.051296066 -0.14332741 0.0054020174 0.031725693 0.21637863 0.07723485 -0.05577821 0.10265713 -0.14038926 0.024465477 -0.0818385 -0.0143057015 -0.13748536 0.06326634 0.08994829 0.051454023 0.09202236 -0.12597981 -0.037934884 0.035580482 -0.28108093 0.026181638 0.013727382 -0.013832453 -0.110350676 0.14126603 0.051972594 -0.06565933 -0.07500168 0.0037994622 0.06368091 -0.052716322 0.05497698 -0.17049387 -0.026571395 -0.070861906 0.1750215 0.049067456 -0.15728593 -0.11897201 -0.036472607 0.034269787 -0.06146499 -0.013613945 0.052290525 0.055422727 0.123835035 -0.1213744 0.16576996 0.06694831 0.08180009 0.10771371 -0.09802007 0.16175619 -0.1214052 -0.20425731 -0.22290435 0.13047734 -0.073284015 -0.1140791 0.045796532 0.18471904 0.08951663 -0.021088015 0.08698342 0.00078933354 -0.09299078 -0.029519109 0.046342626 -0.135549 -0.020780321 0.08217683 -0.11703874 0.10089636 0.085907556 -0.11497398 0.03418355 -0.014906341 -0.027109593
E790 -0.21102883 -0.12984872 0.03983959 -0.027935045 0.080187514 -0.034683585 -0.18203776 0.0017809027 -0.12710223 -0.037560783 -0.03238277 -0.0717482 0.054977372 0.14511499 0.05668887 -0.07906686 -0.0092040105 -0.11227709 0.120267846 0.10932868 -0.008794003 0.11883393 -0.16117746 0.0069769397 0.083079636 -0.13596547 0.019480644 -0.09245444 0.07625675 -0.061776325 -0.123494305 -0.12832135 0.09300831 0.09796042 0.1430701 -0.020392468 0.009441621 -0.07939196 -0.022333298 -0.055653255 -0.13212088 -0.14545438 -0.04569051 0.023643646 -0.11949395 -0.025646318 -0.12420164 0.070899725 -0.004823444 0.049348213 0.06255355 -0.0038111631 0.046364985 -0.037177548 -0.15591052 -0.18858904 0.15623486 0.1908481 0.024817063 -0.05275358 -0.035722878 -0.026887365 -0.035890598 0.052736495 0.039550874 -0.12583591 0.09667084 0.24648245 -0.13011293 0.14679201 0.102625765 0.092782974 -0.045098297 -0.024918271 -0.026990974 -0.1057103 0.09849178 -0.1558526 0.13794267 -0.09200283 -0.00606413 0.01867033 -0.103145614 0.03418883 0.042933352 0.12467519 -0.09357072 0.011561481 0.12009274 -0.11832042 0.088923335 -0.03081948 0.049863283 -0.22992094 0.15662979 0.05180969 -0.045051154 0.010011282 0.06953291 -0.17567055
K37 -0.075375274 0.071530215 0.18259583 0.21242173 -0.06905055 -0.13678615 -0.1939547 -0.015754918 0.0010647889 0.07443289 0.068902075 0.047842234 -0.08047138 -0.080456346 -0.032028496 -0.019779986 -0.043316174 -0.0030112222 -0.04211092 -0.06644677 -0.09133024 0.01608045 -0.18799846 -0.0650631 -0.07654933 0.23321721 -0.10571029 -0.08368227 0.068944655 0.026662279 0.042653143 -0.15055518 0.00049612275 0.04136033 -0.031164518 -0.035195924 0.113113835 -0.016528698 -0.12180425 -0.01835503 0.017872578 -0.107366785 -0.06708236 0.029439956 -0.020237604 0.013774991 0.022621296 -0.06578215 -0.02392541 -0.08244795 0.023571063 -0.009192 -0.16997163 0.06342545 -0.070500545 -0.114479475 -0.09427353 0.13267358 -0.02493842 -0.24880625 -0.16724527 0.06555522 -0.020012967 0.02474797 0.15940455 0.1562825 0.013513163 0.15170233 -0.042211555 0.07121245 -0.026770772 -0.091279484 -0.033621572 0.07328802 0.08843894 -0.09214186 -0.14371693 -0.21568567 0.15628538 -0.10781806 -0.07214667 0.0047735334 0.14107424 0.20256539 -0.088183254 -0.059375595 0.00698718 0.002589606 0.07600799 -0.09722674 -0.15437256 0.1497169 -0.11431007 -0.035135165 0.086990006 0.114332944 -0.08986398 0.12705474 -0.02360513 -0.08959751
R093 -0.12819767 -0.0955425 0.01753269 -0.0057540573 -0.033021294 0.015099068 -0.24630453 -0.012302291 0.036166925 0.06637164 0.0154256895 -0.10830295 -0.032404058 0.14008956 0.0961739 -0.11272671 0.107045315 0.011021861 -0.02247803 0.049904164 -0.12029896 0.047541678 0.02003511 -0.041532837 0.11537251 0.008798632 0.011717984 -0.095509835 -0.08876588 -0.07729835 0.07981619 0.0033771151 0.0031923503 0.24082145 0.21456333 -0.13322388 -0.008596991 -0.02792459 0.055582132 0.087977625 0.08198824 0.0054412563 0.09073371 -0.17807563 -0.02809393 0.10219109 0.051504944 -0.23251364 0.10776413 -0.071225345 -0.032237414 0.2269738 -0.029029485 0.0019668522 -0.15872112 -0.049314514 0.008931389 0.1631835 -0.07453605 -0.07561414 -0.04864938 0.046477307 0.14558963 0.0016376361 0.09783101 0.07228953 -0.053373776 -0.013796929 -0.12073147 0.16526991 -0.0092831 -0.12305446 0.071689546 0.044189088 0.012442305 -0.034074355 -0.11588957 0.015680537 -0.038943067 -0.0898819 -0.1819362 -0.17490786 -0.07349608 -0.10230042 -0.041162 -0.03705761 -0.09149171 -0.002846172 0.17210421 -0.07815794 0.0048947143 0.19423854 0.15552269 0.16200379 -0.15236253 0.041240003 0.10398932 -0.07156047 0.042365156 0.039903563
F209 -0.04179988 0.017539045 -0.09824715 0.04670282 -0.02355588 -0.056873284 0.085612 -0.07845284 -0.08366754 -0.10009992 0.04858308 0.0002932593 0.059267838 -0.028844643 0.11560254 -0.0006989743 0.029134894 -0.12378528 0.0681697 0.18371753 -0.14854987 0.23341238 0.010743171 -0.020042116 0.057770923 0.118759446 -0.12056792 0.07961866 0.1641386 -0.07190335 -0.0031304657 -0.10900402 0.22280295 -0.07513688 0.10536971 -0.05625813 0.009667776 -0.039287798 -0.18134883 0.12032379 -0.13901623 -0.04394378 -0.023180075 0.12119315 0.032059666 -0.02732472 -0.021719633 0.051447786 0.17085434 0.012351505 -0.07399822 -0.06949364 -0.09225892 0.022333829 -0.14068677 -0.35748765 -0.07877809 0.018833857 0.06257247 -0.077335544 -0.1705844 -0.0041592126 0.008395836 -0.029044593 0.27575448 -0.038818657 0.011672695 0.18034749 -0.06476614 0.049963348 -0.077505864 0.050205305 -0.087463535 -0.057206728 0.163305 -0.124918684 -0.0525043 0.09294775 0.09698072 -0.097142726 0.084672354 0.029177357 0.012681515 -0.043248743 0.11281756 0.123523384 0.009104436 -0.02781467 0.15388118 -0.08499447 -0.066260196 0.024885027 0.10445797 -0.0719493 0.010994414 -0.017512888 0.045877464 -0.054904126 0.08706735 -0.04731477
K830 -0.12412461 -0.1450757 0.0048180837 0.09137345 0.042705767 -0.1939447 -0.16009074 -0.10228834 0.0083923675 0.04406011 0.1286859 0.06676904 -0.057337992 0.08705938 0.062708855 -0.09310979 0.08593783 -0.0454936 0.016367517 -0.008331729 -0.058872856 0.021168824 -0.2650069 -0.023313507 -0.02257697 0.030855699 -0.124994785 -0.02644893 0.092006296 -0.0358338 -0.034021787 -0.30896327 0.08006243 0.057329357 0.052868623 -0.040860325 0.029402044 -0.15119585 0.05153751 -0.13512948 -0.09786314 -0.13840723 0.005623108 -0.07541576 -0.08031562 0.09614718 -0.006226666 -0.05264149 -0.030972574 -0.13726512 0.060007278 0.022803001 -0.06456365 0.036044516 -0.22610174 -0.097467914 0.020312518 0.20532297 -0.09453181 -0.16699472 -0.04937441 0.010861411 0.04252763 0.07691565 0.025725493 0.16275917 0.02994003 0.117038146 -0.19832133 0.0392689 -0.054815747 -0.035435725 0.039314892 0.027607786 0.06042413 -0.13164793 -0.10542156 -0.24899454 -0.06630095 -0.04252865 -0.05787987 0.0040289448 0.06618274 0.18827443 -0.078606345 -0.04030584 -0.090807535 0.08581449 -0.0016671096 0.027243195 -0.1810786 0.077917755 0.089846835 -0.0688834 0.0026409284 0.08126857 -0.12743653 -0.012755265 -0.007640287 -0.038479637
R600 -0.126642 -0.07677537 0.13763346 0.041799802 0.09327197 -0.08987354 -0.2173291 -0.03736406 0.14842701 -0.04923361 0.08193077 -0.036091488 0.024001164 0.061552703 0.15027189 0.02887844 0.016316105 0.02652572 0.0536971 0.07582146 -0.025755424 -0.12444778 0.015283462 0.10205419 -0.01902235 -0.14442104 0.0028256297 -0.2605479 -0.06926927 -0.014456181 -0.11396096 -0.088011615 0.124184944 0.026285706 0.07249295 0.06281279 -0.13427441 -0.05749204 -0.0076064873 -0.05524651 -0.13725659 0.05979919 0.03902566 0.054384038 -0.20574296 0.10443692 0.018155761 -0.013917211 0.104166925 -0.10769113 0.07905807 0.0663723 -0.014144493 0.040568236 -0.04716265 -0.1834705 0.026344556 0.044068728 -0.11773248 -0.12884356 -0.10392264 0.08720252 0.0803451 0.04336352 0.14591412 0.17722957 -0.025713202 -0.022926284 -0.030197112 0.1610414 -0.046533775 -0.24681073 -0.051468253 0.10977002 0.0019952133 -0.2049769 -0.18717445 0.0557121 0.075122915 0.013199079 -0.13988896 -0.07544251 0.08170648 -0.1689758 -0.021864707 0.08444126 -0.14773875 0.010251925 0.084569305 -0.07634083 0.009399383 0.08120652 0.09017626 -0.054331712 -0.089377865 0.18304835 -0.03803784 -0.036828276 0.023892956 -0.096156664
T784 -0.08109981 -0.22776514 -0.12566996 -0.028548682 -0.074185476 0.10736621 -0.081631735 -0.018672435 -0.056280043 0.11388588 -0.029183894 -0.085944906 -0.10473268 0.10021269 0.0066699926 -0.08388221 -0.10563714 0.008842017 -0.050639346 0.1427374 -0.112542406 0.046901874 0.09555421 -0.09770451 0.075755 0.042550936 -0.023143658 -0.046935443 -0.014418763 -0.11619086 -0.13610065 -0.07106789 0.15739964 0.22368033 0.14393057 -0.14747505 0.1199985 -0.05900498 -0.024631541 -0.03874543 -0.032184113 -0.009163571 0.028752752 0.03789027 0.016396746 -0.016372904 0.12264725 -0.20624135 -0.105788566 -0.053563163 -0.02841677 -0.05049224 -0.041470505 -0.031992104 -0.16707826 -0.28147322 -0.13098645 0.042320073 0.30218133 0.008560573 -0.030199092 0.2073419 0.04289089 -0.017899482 0.12970227 0.091217116 -0.03451467 0.09251252 -0.12093495 0.008925736 0.07389945 -0.05924753 0.027532265 0.08090439 0.14218444 -0.039937966 -0.12782641 -0.047646437 0.025496516 -0.059058063 -0.02568959 -0.036990937 0.14313436 -0.029841557 0.054054152 0.024246601 0.026375512 0.014047974 0.17857972 0.04144754 0.006359347 0.16089484 0.16336289 0.002534419 0.06942585 0.061880793 -0.06736221 -0.10625588 0.03371375 -0.02437369
J459 -0.21618155 -0.035189446 -0.062564895 -0.0327 -0.10486703 0.09430648 -0.038053162 -0.014597504 -0.032505885 0.08841429 0.011183271 -0.058165587 -0.11265258 0.23410834 0.040268023 -0.09730388 -0.010859745 -0.05825293 -0.0492951 0.09325304 -0.16074115 0.08022353 0.02580585 -0.117098175 0.06721882 -0.030865898 -0.088217795 0.007078952 0.050931823 -0.051908482 -0.002223473 -0.20074303 0.12964374 0.17127255 0.045663163 -0.13303211 0.07624385 -0.027026169 -0.12640253 0.023392068 -0.0055365018 -0.0025346943 0.017151311 -0.014402168 -0.04391542 0.10476047 0.043538284 -0.08950869 0.016447771 -0.070075236 -0.048986264 0.062323656 -0.06016274 -0.11418029 -0.14799218 -0.22470933 -0.19822447 0.10146721 0.09309342 -0.12455194 -0.12195649 0.07539717 0.0055471654 -0.09504608 0.24525662 0.085022345 0.023632906 0.12995602 -0.06807775 0.107197754 0.04122792 0.014471709 0.050411053 0.0995089 0.12028922 -0.043958914 -0.13914576 0.13144085 0.093498506 -0.07042119 -0.03748381 -0.08829333 -0.04256182 -0.048971184 0.010778893 0.07996003 -0.002465317 -0.11812121 0.3094595 -0.05887173 -0.07409905 0.13206331 0.13841625 0.022667335 0.06834265 0.08725817 0.06129463 0.042177968 0.04768903 -0.14224258
I499 -0.2260901 -0.01813054 0.021017537 -0.013322258 0.04897615 -0.16365361 -0.00087549206 -0.02440822 -0.0494684 0.07101988 0.0074238246 -0.037503492 -0.036427762 0.11445621 0.1442599 -0.06610522 -0.03854158 -0.1492136 0.002087311 0.027633836 -0.014264666 -0.10620421 -0.018225664 -0.03501439 0.036114607 0.15642785 -0.08593254 -0.010780425 0.13949043 0.047762707 -0.013004754 -0.04412658 0.061691783 0.16653688 0.074019566 -0.10352188 -0.019471457 -0.054780852 -0.026425462 0.05793346 -0.13511941 -0.058691204 0.01696686 -0.049117602 -0.016797679 -0.021649348 0.086993754 0.10983572 0.07664543 -0.09708114 -0.123007566 -0.15492664 0.016392905 -0.08593761 0.037106615 -0.1887182 -0.008035815 0.088015184 0.023673022 -0.022379331 -0.057006035 0.02817894 -0.061339665 0.03552212 0.09027493 0.14899279 0.07865842 -0.08668217 -0.028754598 0.12180352 -0.055411667 0.013522698 -0.03800208 0.039078433 0.058751997 -0.21603711 -0.14425555 -0.12514777 0.050307497 -0.27765068 0.06906485 -0.078440316 -0.04056539 0.05677978 0.093920805 0.24575892 -0.047696736 0.059601523 0.2313274 -0.23036982 0.08005667 0.09026043 0.18520935 -0.1536413 0.045980103 0.089654796 0.17182377 0.081116594 0.048145365 -0.08557145
F329 -0.042745583 -0.025136592 0.004545013 -0.024473019 -0.04943161 -0.10707908 -0.009246183 -0.11742355 0.08196695 -0.077861875 0.026180092 0.06093383 0.0030591725 -0.15256801 0.04292922 0.030091288 0.0012874457 -0.07720759 0.024943406 0.1437857 -0.024397213 0.052355185 0.01680411 0.055769585 0.02858683 0.038219504 -0.10529921 -0.058735166 0.07478656 -0.058147077 -0.013264723 0.011667729 0.23331197 -0.0046902862 0.2044742 -0.038875345 0.033032324 -0.0927512 -0.09748477 0.070093766 -0.3471296 0.041483916 0.022665264 0.13694437 -0.07224014 -0.011176715 -0.040389284 -0.009562325 0.11964338 0.0012706887 -0.13741343 -0.057822995 -0.010618653 0.16141856 -0.1187371 -0.3523078 -0.13280733 0.058124874 0.07893428 -0.14982498 -0.21267693 0.042730667 0.054401454 -0.06400394 0.26492825 0.0057103047 0.02484367 0.13685995 -0.028807102 0.07706809 -0.035801392 -0.024270577 -0.07675261 -0.0980742 0.029122518 -0.15138042 0.0025685946 0.06230892 0.051774573 0.023928137 0.026453497 -0.048532046 0.06352588 -0.07216696 0.0071144397 0.16147484 -0.038654543 0.056615848 0.14311022 -0.06926847 0.084702626 0.08629527 -0.0053553428 -0.08343001 -0.104576275 0.014164262 0.079515494 -0.08177265 0.12792358 -0.12453206
J029 -0.14248675 -0.14400831 0.032387942 0.04973901 -0.07002501 -0.08192335 -0.25466877 -0.15111451 0.058899038 0.19046226 0.09927131 -0.013711508 -0.06802748 -0.011050673 0.03505625 -0.08805735 -0.02340369 -0.08928459 0.019268157 -0.008785464 -0.07675793 0.09539817 0.0052292934 0.031138394 0.053343996 0.0078087305 -0.047904734 -0.082489796 -0.034765966 0.0382373 -0.10208086 -0.06335707 -0.043738835 0.070057355 0.1964422 -0.100247815 -0.05553833 -0.020377824 -0.04634548 -0.05589372 -0.025332289 -0.03732368 -0.028501902 -0.011066758 -0.063433155 0.12093498 0.16836585 -0.24008122 0.03222945 -0.082111716 -0.06493657 -0.04469279 -0.16531746 0.04690006 -0.23111446 -0.14803657 -0.16381042 0.047770485 0.049119122 -0.18762691 -0.12920071 0.013271007 0.14437266 -0.040784888 0.16707072 0.011920828 0.038707007 0.07964137 -0.113431364 0.119760126 0.035503544 -0.111336194 0.09267576 0.10463191 0.062238358 -0.18040584 -0.12577671 -0.046871144 0.04204496 0.051193617 -0.13818559 -0.21447909 0.0053612418 -0.024837714 -0.09758905 -0.081096716 -0.04578209 -0.018667676 0.11577862 0.07494883 -0.13911594 0.18241814 0.040591106 0.09324177 -0.097663745 0.00758514 0.031370074 -0.050870758 0.0012588409 -0.084670596
I48 -0.24057287 0.15213794 0.14241995 0.1318053 0.047744554 -0.1560665 0.053376883 -0.027741779 -0.01895756 0.0054308283 0.092668526 -0.089016296 -0.03332922 0.13373223 0.15420732 0.017713929 -0.07236219 -0.22006059 -0.013701426 -0.010215521 0.0018931875 -0.06848429 -0.086987875 0.02664543 0.05350221 0.090851836 -0.061562378 -0.064286746 0.15775332 0.09045476 0.056098044 -0.06437707 0.10513794 -0.022420024 0.04973258 -0.08061518 -0.009190909 -0.010988091 -0.048349943 0.08426559 -0.06663523 -0.098010324 -0.016044224 -0.0028650714 -0.12146653 -0.0050184214 -0.017771564 0.16616294 0.09397895 -0.12548438 -0.13034026 0.047222715 0.070587434 -0.19570753 -0.047016226 -0.1470983 0.01375928 0.09445857 0.016989486 -0.105731584 -0.14416854 0.04044812 -0.014611801 -0.0015644068 0.11678059 -0.0035148184 0.16351981 0.09263763 -0.040230557 0.04144991 -0.033779297 0.07684734 -0.029924784 0.07631029 0.08224379 -0.12282071 -0.13578452 -0.18825443 0.09518053 -0.11106047 -0.000676469 -0.016678508 0.042953763 0.03834752 0.08739704 0.20704614 -0.074354656 0.027842782 0.2585511 -0.23027493 0.034443755 -0.03821619 0.1340087 -0.12728626 0.019022243 0.12702309 0.09234714 0.118650876 0.048770156 -0.040730648
H350 0.0255987 -0.2223876 -0.00626868 -0.07131242 0.08219287 0.010907945 -0.059948377 -0.09849977 -0.11212219 -0.11343846 0.11017985 -0.0828789 -0.035505846 0.32708678 0.08815918 0.039994635 -0.11071901 -0.03681025 -0.033474766 0.019861557 -0.10492922 -0.17362604 -0.045982245 0.05067413 0.09172108 -0.036682416 -0.050630312 -0.041143157 0.16946632 0.08848591 -0.039039373 -0.17129308 0.057884585 -0.025570802 -0.10400417 -0.07196831 0.19707829 -0.039664786 0.034634143 -0.15735981 -0.043043144 0.06754479 0.027677914 0.22979032 0.087333575 0.11304417 -0.036527213 0.05849842 -0.039717864 -0.1021864 -0.08365579 0.0036755924 -0.08545002 0.11696762 -0.028332774 -0.04844729 -0.093872406 -0.021395689 0.03515872 -0.23771153 0.0074100993 -0.0911991 -0.04590699 0.05319223 0.16366105 0.06694607 0.025602404 -0.08836342 -0.09894239 0.07518458 0.030509302 0.09770066 -0.11531881 -0.04646447 -0.03413638 -0.10583624 -0.03171713 -0.23536646 0.07170192 -0.11608872 0.056544527 0.076623075 0.1359204 -0.0161742 0.06045228 0.12661119 -0.028196905 -0.016936561 0.09175331 -0.16655986 0.052721668 0.04615061 0.07700761 -0.16075854 0.03483692 0.022735856 0.07022165 -0.0032117723 -0.1326281 -0.10464881
R599 -0.05370419 -0.13805708 0.17254126 0.14411816 0.102677874 -0.14498453 -0.31908464 -0.2235267 0.1272348 0.058068335 0.08518746 -0.13635544 -0.099182375 0.00092106464 0.0362517 0.018102089 0.029855236 0.098409966 -0.025987832 0.07005193 -0.20670605 -0.100064404 -0.04873378 0.08441553 -0.059567396 -0.055922657 0.07028653 -0.18907975 -0.07253733 0.0004590582 -0.06282101 0.05672833 0.0068205525 -0.07674009 0.04112112 0.03138795 0.0224257 -0.028808579 -0.040323995 -0.21075177 -0.10524653 -0.20116949 0.040864892 0.055659167 -0.10688757 0.056888577 0.1264161 -0.11290671 0.007996754 -0.13278434 0.1411752 0.095443465 0.019345568 0.09377325 -0.10749681 -0.085881904 -0.073799394 0.1330482 -0.03750146 -0.053073034 -0.07457174 -0.0626048 0.012712472 0.117676385 0.02645746 0.15843889 -0.038141493 -0.017782735 -0.1249517 0.04764316 0.09391484 -0.16288581 0.028129172 0.06544335 0.036897432 -0.14697585 -0.18807587 -0.110632725 0.103671364 -0.041532647 -0.10935875 0.0032854686 0.047200903 -0.007832775 -0.042110197 -0.038299758 -0.041958474 -0.003968567 0.013488426 0.015262551 -0.062007956 0.095234156 -0.036344692 -0.14200608 0.037164573 0.0059633055 -0.16065854 -0.111416504 -0.028348705 -0.06508126
C349 0.018117668 -0.09253786 0.0008616721 0.17393816 -0.097319454 -0.07002785 0.12194779 -0.073634334 0.0020584054 -0.15690368 0.0068026525 -0.14654215 -0.17214078 0.05743885 -0.054528132 0.0067983093 -0.017621033 -0.031234842 0.025747363 0.018818775 -0.15620707 0.107022285 -0.1482926 0.024187775 -1.4848941e-05 0.17106178 0.0983657 -0.021177402 0.12468527 -0.09258279 0.0461598 -0.07996489 -0.0101868585 -0.11809005 0.00935114 0.057643633 0.02307107 0.066378824 -0.042397268 -0.0022810341 0.0114017185 -0.2103454 -0.021196114 0.06896985 0.01779151 -0.10083593 0.12950389 0.046109233 -0.12814713 -0.09150435 0.030236248 0.03720891 -0.047921643 0.054545734 -0.08804391 -0.043444064 -0.07251244 0.13909069 0.045582496 -0.17770752 -0.024061369 0.084015705 -0.034324158 0.08548473 0.13172345 0.14384557 0.021084312 0.09512404 -0.15671386 0.10018451 0.0131019885 0.17984904 0.0804132 -0.09206713 0.15621035 -0.17669424 -0.24729952 -0.14074492 0.06551785 -0.17605138 -0.15266694 0.04465769 0.06091493 0.044574086 0.028930584 0.20464084 0.11609093 -0.16257814 0.033351783 -0.019796977 -0.16718161 0.027079208 0.10651277 -0.105215214 0.113952994 0.09779113 -0.027109794 0.004938558 0.0152297085 -0.023279317
H409 -0.13725248 -0.028663998 0.05952022 0.024835974 -0.058578093 -0.15259355 0.027261592 -0.07209053 -0.18707038 -0.016250266 0.09766875 -0.028556833 -0.1475771 0.20522067 0.14331554 0.07078825 -0.10241683 -0.024451857 -0.11352873 -0.06511633 -0.07907936 0.091007195 -0.09539675 0.06401706 -0.004900483 0.07379784 0.0043542534 -0.021492422 0.119973324 -0.08766366 -0.02457748 -0.21057044 0.068380654 -0.0058981087 0.014875152 -0.08986219 -0.038577814 0.0103475535 -0.047805082 -0.06422728 0.06656951 0.010243675 0.002864996 0.120388374 0.1863287 0.0476602 -0.17303583 0.00029954093 0.12925984 -0.043365207 -0.043361437 -0.036066648 -0.15484689 0.02378067 0.04520879 -0.2855825 -0.052148543 0.025809253 0.04932004 -0.020107359 -0.06271503 0.04069319 0.019213242 0.028531563 0.027044727 0.015219109 -0.3069329 0.104725055 -0.17983688 0.05839068 0.056911632 0.019804422 0.0783974 0.007029396 0.03769557 -0.06901441 -0.12084405 -0.11666015 0.17588714 -0.19143467 0.01446101 0.12860334 0.071770355 0.07268994 0.04962295 0.1514737 0.07476923 0.008959177 -0.006140993 -0.10332804 -0.03928544 0.12283792 0.045239728 -0.17216353 0.013797491 0.1958823 0.06968183 0.12312467 0.008138638 -0.004305323
J90 -0.080901116 -0.06386887 0.20007092 0.1256557 0.005540304 -0.05965458 -0.27300644 -0.07188731 0.02327645 0.03619106 0.075260095 -0.18894905 -0.003944053 0.017525971 0.045857724 -0.05412829 0.1929251 0.08558863 0.10209286 0.058391962 -0.1333739 -0.07669023 -0.042963315 -0.030701887 -0.010487046 -0.08309799 -0.020261213 -0.17871933 0.025620783 -0.07569016 -0.12202833 -0.06796183 0.038061943 0.118045256 0.010679394 -0.06953338 0.090116695 -0.11981007 0.07357872 -0.057780378 -0.008396044 -0.120910615 -0.055285916 -0.13444093 0.029448345 0.095461756 0.06416345 -0.031021342 -0.040793017 -0.154162 0.039869487 0.25066334 0.030939782 0.0024548841 -0.010198361 -0.035284147 0.08462046 0.19515543 -0.10541585 -0.054500304 -0.07516909 0.04740493 0.14642844 0.1496448 -0.024720121 0.16212948 -0.04480973 0.011898302 -0.15130049 0.10633751 0.096862175 -0.09646573 0.04404272 0.05716527 0.05703671 -0.0860768 -0.29715222 -0.049314413 0.00983453 -0.065182485 -0.25318113 -0.037821893 0.0013044946 0.07588011 -0.075811625 -0.08158946 -0.14586075 -0.01403969 0.0679194 -0.0506194 -0.025999902 0.004557731 0.07504738 0.03840653 -0.02300268 0.13518712 -0.07155982 -0.002285976 0.0008749415 0.09472375
R31 -0.1790676 -0.12145313 0.20806926 0.07272914 0.089356855 -0.14568312 -0.29083326 -0.0059367777 -0.05205559 -0.049320765 0.059569888 -0.10523846 -0.16549854 -0.027348585 0.011663151 0.03808951 0.0030766318 -0.005245494 0.043707464 -0.10777722 -0.10088354 -0.11306532 -0.12779042 0.046921343 -0.0834896 -0.048919972 0.08377717 -0.13788177 -0.09607693 0.018537039 -0.107730545 -0.0055884016 0.10796243 0.029672174 0.22339761 0.02486462 -0.06982537 -0.07651431 0.06409031 -0.14510587 -0.088277325 -0.011682491 0.040467627 -0.032214638 -0.039620195 0.037740175 0.015457823 -0.085916206 -0.07197063 -0.005741023 0.07822552 0.17906252 -0.036177326 0.15583593 -0.20113903 -0.095158055 0.12069027 0.13588661 0.0348487 -0.03011639 0.0020284061 -0.017460672 0.058844164 0.19592968 0.071887694 -0.040816925 -0.042355537 0.052451618 -0.15618071 0.0435835 0.08580299 -0.11445784 -0.005073883 -0.030534647 2.304297e-05 -0.1315714 -0.2512586 -0.0692221 0.24609828 -0.067940466 -0.072595924 0.01838834 0.020022167 0.08403586 -0.055498436 0.080202706 -0.07042686 0.010152401 0.12148052 -0.09198523 -0.011879041 0.15898104 0.005009175 -0.08734023 -0.037500817 0.11638974 0.00012320597 -0.031797074 -0.0103330705 0.06420941
M0690 -0.18806233 -0.20483924 -0.032363195 0.025311358 -0.047645155 -0.035572093 -0.12571062 -0.08040414 -0.023144515 0.032325212 0.08679088 -0.042729255 -0.1071059 0.097091556 0.073100835 -0.052992024 -0.05045367 -0.10678681 0.13407151 0.21332076 0.025483137 0.13507603 -0.12767448 -0.009611431 -0.03842144 -0.0071214675 0.017179132 -0.065527536 0.113856666 -0.08101375 -0.087897524 -0.09136966 0.002913968 0.037038736 -0.036170114 -0.024667813 0.083331086 -0.14844538 -0.14061736 -0.14169593 -0.104204156 -0.04375369 -0.023732802 0.124922186 -0.09257495 -0.080425076 -0.09420375 0.042973846 0.028208738 -0.07744305 0.039275963 -0.074508876 -0.107762836 0.035855245 -0.1796855 -0.30589563 -0.11332213 0.118280135 0.102441065 -0.09164179 -0.017664883 0.13601413 -0.07827101 0.08599434 0.124261595 0.17995751 -0.022906905 0.08129597 -0.18518084 0.10558009 0.07135291 0.028180234 -0.029520174 0.07099072 0.06277439 -0.07947017 -0.10327246 -0.05905635 0.043682925 -0.15603878 -0.09659516 -0.1306831 -0.018643174 -0.12306529 -0.069442056 0.091933765 0.15277618 -0.040921066 0.15421827 -0.0017126853 0.005191956 0.1228485 0.013809617 0.006008288 0.20711435 -0.018964987 -0.0071949335 0.085173294 -0.06391732 -0.07997357
K295 -0.10311955 -0.10969989 0.009889829 0.020942573 0.027714819 -0.0970899 -0.08747201 -0.031058095 -0.066637315 -0.13424908 0.029097093 -0.020625327 0.0014438278 -0.07388897 -0.10905924 0.070542455 0.078085944 -0.09113863 -0.026888596 -0.089102834 -0.12264344 0.07698099 -0.09660541 -0.020255335 0.0860752 0.065057844 -0.018709274 -0.093871765 -0.061359882 -0.15928322 -0.11164206 -0.19138727 0.06622446 0.09952071 0.20208009 -0.2209386 -0.064989656 0.10185587 -0.21759024 -0.06895524 0.035921596 -0.095571674 -0.10294477 -0.040148698 -0.10021488 -0.036777403 -0.0052461163 -0.12754798 -0.06433234 -0.19397613 0.041587684 0.008455333 -0.120370924 0.021721771 -0.24192606 -0.03559978 0.004779292 0.12858886 0.08943613 -0.16093987 -0.16290651 -0.13649632 -0.03370314 -0.09627466 0.11220193 -0.112814814 0.111746736 0.078844644 -0.103328966 0.11451778 0.021626353 0.02690174 0.063566156 -0.08071346 0.12531888 -0.14492197 -0.11221785 -0.17932147 0.14489855 0.041424796 -0.10238647 0.16598797 0.07179111 0.033825055 -0.069668874 0.011786124 -0.0120268315 0.088343196 0.06342909 -0.07074067 -0.08876235 0.0010869355 0.058803715 -0.023311554 0.0931396 0.007897364 -0.19518352 0.03830065 0.021553703 -0.05580184
R14 -0.11709961 -0.08078959 0.106931314 0.044619847 0.09525467 -0.119049996 -0.33046022 -0.03697666 0.13414441 -0.023157034 0.029697234 0.010523722 -0.013858652 -0.05161989 0.07037818 0.07066668 0.018252984 0.07504333 0.047597457 -0.04109638 -0.025340969 -0.14164785 -0.00096852105 0.08510615 0.027349979 0.03802499 0.041351836 -0.20786491 -0.09244484 -0.03206316 -0.107152134 -0.0027319237 0.09599756 0.04533253 0.15719745 0.031727944 -0.055598084 0.044270385 -0.025825778 0.001606379 -0.119699866 0.042634033 -0.017543929 -0.06915 -0.23284243 0.12813956 0.014892812 -0.14525928 0.09218647 -0.047233168 0.10752931 0.09608307 -0.055300694 0.03813541 -0.11870895 -0.096472986 0.06792219 0.18262275 -0.12574604 -0.16815972 -0.17523944 -0.04890426 0.10824194 0.03140029 0.048578296 0.08992207 0.045463134 -0.0013229207 0.0037956934 0.1690404 -0.053850573 -0.18359214 0.009919483 0.018460069 -0.02060294 -0.17226443 -0.10753278 0.0083941985 0.032691363 0.07566273 -0.13958059 -0.052077357 0.117222145 -0.07552261 -0.09074913 0.0061493665 -0.15653798 0.14599906 0.00047743248 -0.008474773 -0.052386153 0.24900538 0.034804672 -0.086237215 -0.13376775 0.15189944 -0.10141582 -0.060407363 0.009458976 -0.009249504
R252 -0.150026 -0.009412972 0.032397907 0.052803736 0.10506652 -0.1447787 -0.16302757 -0.011933077 0.16245155 0.0898297 0.10353992 -0.029110532 -0.08727491 -0.017452754 0.25962147 -0.08948075 -0.17214297 -0.03113443 0.04183637 0.11172167 -0.09930271 0.043664835 0.1212253 -0.06765595 0.12977134 0.021308377 -0.09041723 -0.18588622 0.018230254 0.11826119 -0.1308512 -0.07108273 0.113763936 0.100060195 -0.010016453 0.0015916849 -0.043428414 -0.020660665 0.020578949 0.048626453 -0.16352274 0.065081134 0.012754412 0.037467852 -0.049501974 0.065949775 0.048510518 0.06476019 0.2326777 -0.013047615 -0.08818662 -0.018504094 -0.112615354 0.028302817 -0.06399253 -0.22920915 -0.08924103 0.018699832 0.10159531 -0.08182274 -0.09678877 0.15425062 0.02812915 -0.0028638819 0.063297525 0.13883121 0.053289246 -0.047455717 0.027910694 0.07960495 -0.040836427 -0.11807824 0.0031804438 0.09892003 0.039631642 -0.124534585 -0.08160493 -0.012260567 -0.0512234 -0.1251987 -0.0073486962 -0.19908586 0.055252634 -0.049618192 -0.0074975835 0.05624915 -0.06395597 0.07199654 0.16451637 -0.18406637 0.017986294 0.27211845 0.07351778 -0.043361217 0.076515876 0.12063981 0.06140482 -0.040587287 0.09733464 -0.09235752
F059 -0.09484311 0.11914557 -0.027931727 -0.017819865 0.014585295 -0.08837725 0.017979542 -0.09603825 0.09205452 0.10399054 0.03026288 0.03900193 0.01896382 -0.10517671 0.062017456 0.092319295 0.11655701 -0.0645945 0.08412766 -0.06449966 -0.16473196 0.03680964 -0.048758134 0.027946504 0.0054609044 -0.03273993 -0.044727057 -0.039710205 0.0040321564 0.037630603 0.051496606 -0.12845527 0.056521386 0.1648438 0.078712486 0.05480563 -0.1090272 -0.060761176 -0.122170195 0.15404873 -0.21377385 -0.030606221 -0.06603816 0.037715428 0.095522195 0.017493596 0.06576602 0.0750636 0.08582725 0.0041743647 -0.11335974 -0.1217624 0.14700824 0.2243672 -0.07563931 -0.34048316 -0.03249578 0.046256285 0.13795851 -0.0664732 -0.10880382 0.15358135 0.1390374 -0.08917501 0.2384783 -0.029247157 0.0102464985 0.05922054 0.07679813 -0.06546645 0.11039121 0.055456486 0.008980592 0.083577186 -0.031173907 -0.011805413 -0.029698018 -0.00471984 -0.06080119 0.046037275 0.009156889 0.020094328 0.007987485 -0.037016388 0.042833667 0.13380232 -0.20257391 0.10189348 0.20345174 -0.079634525 0.12035086 0.15901169 -0.0028727471 -0.038082216 -0.038465977 0.15058671 0.099750884 -0.06778918 0.1478666 -0.1371018
K567 -0.11643582 0.00863035 0.012478212 0.108120374 0.045542527 -0.14794575 -0.13941576 -0.04596964 0.047115088 0.11293711 0.0429913 0.018777778 0.057258576 0.022967147 -0.0014486037 0.040340856 0.04140956 -0.057815038 0.07478386 -0.12091616 -0.15958479 -0.043416027 -0.13496381 -0.095384985 0.091149 0.049526256 -0.111287266 -0.051512532 0.053180553 0.01206757 -0.029628402 -0.26692963 0.054729838 0.00062921457 0.049040485 0.0075227004 0.058286592 -0.018584268 -0.11005475 -0.044110842 -0.06695419 -0.12907426 -0.07736603 -0.08063015 -0.08384302 0.14064042 0.108131565 -0.003961183 -0.058670808 -0.19297814 0.03534114 -0.058660287 -0.0782663 -0.041514087 -0.0895868 -0.15038037 0.016950188 0.19947007 -0.002516045 -0.19824499 -0.1566731 0.0722157 0.0858013 0.062727645 -0.02160379 0.13864088 0.011257223 0.02640197 -0.028973753 0.10670423 -0.06559507 -0.08978396 0.054495282 0.009746834 0.05557021 -0.17441031 -0.19101605 -0.2671039 0.065473065 0.048549738 -0.06090288 -0.022355573 0.10448063 0.1950848 0.03367136 -0.03752102 -0.18948746 0.03824583 0.012818022 -0.08715544 -0.10623664 0.15556885 -0.0075188135 -0.12995836 -0.04063457 0.2569559 -0.008585738 0.01803184 -0.0036940952 -0.09125338
C80 0.07862279 -0.086054794 0.09551558 0.17302608 -0.0058081616 -0.13063616 -0.013341121 -0.14167301 0.015104883 -0.09711819 0.028866421 -0.17829137 -0.18834428 0.043197177 0.00276667 0.032721214 0.0412549 0.07344465 -0.01289725 0.048197903 -0.1942632 -0.009484524 -0.09091501 0.008162607 0.033109583 0.14672913 0.15083203 -0.09324939 0.13569824 -0.092186704 -0.008904821 -0.08504216 -0.0057628816 -0.082042456 0.033020735 0.049498774 0.06892344 0.014104144 -0.055305675 -0.11014729 -0.034234475 -0.2893038 0.06978049 0.11697569 0.07423029 -0.089663476 0.16653112 -0.012260304 -0.07752096 -0.1351088 0.02624584 -0.050274033 -0.012516269 0.12466814 -0.14953068 -0.056388523 -0.09305636 0.21365733 0.06353627 -0.118966706 -0.048417237 0.04018325 -0.07556151 0.091928646 0.033176225 0.15216327 0.07451057 0.01964549 -0.15763298 0.078729905 0.011235431 0.09105978 0.061084785 -0.08063846 0.21117549 -0.037618473 -0.18428248 -0.17932425 0.11631145 -0.18819745 -0.09814748 0.025975388 0.07627548 0.13002089 0.046428286 0.059710924 0.071636684 -0.0937163 0.05562308 0.042938564 -0.1095383 0.033384256 0.01721765 -0.0906625 0.13193119 0.025322007 -0.06142469 -0.07120897 -0.043640886 -0.040421464
T140 -0.05195248 0.018300023 0.09703139 0.13373516 -0.006286722 -0.22938174 -0.19150081 -0.18172464 0.07198784 0.17914057 0.053779826 -0.043117486 0.023846952 -0.10780551 0.062262733 0.074202195 -0.04642527 0.1260007 0.15118147 -0.03416897 -0.10737706 -0.048338547 -0.07667819 0.013900981 0.080858245 0.046679586 0.018432574 -0.19063912 -0.029313648 0.0025300016 -0.07178809 -0.13863899 0.03251369 -0.021411972 -0.17794022 0.12832738 -0.09680767 -0.07216429 -0.07751877 0.032005887 -0.0102203125 -0.061190892 -0.049642947 0.16200446 0.07660541 0.029308176 0.06244497 0.08198853 0.030485693 -0.11099906 -0.010454531 -0.07335802 -0.09794397 0.075591154 0.11047736 -0.19878723 -0.09469579 0.05479593 0.022044513 -0.0015157561 -0.08725035 0.19060716 0.31014782 -0.100369915 0.14549564 0.11368876 0.0045462456 0.014201322 0.00086469436 -0.029547662 -0.026186578 -0.12611835 0.06735262 0.10033423 0.07126672 -0.047683317 -0.23116952 -0.24233837 0.012343539 -0.12171736 -0.0006195234 0.059686 0.03188492 0.071439326 -0.10760301 0.0014112856 -0.03449225 0.065438725 0.11709752 -0.033520784 -0.024524689 0.099259496 -0.10871445 -0.027430516 -0.029517423 0.05795461 -0.044873923 0.006641421 0.067318864 -0.07203821
B029 -0.060956564 -0.23824042 -0.015430652 0.15981597 0.03266004 -0.089871585 -0.050005767 -0.11566092 0.077493034 0.07702296 0.16594191 0.06066905 -0.14135174 -0.13893272 0.08005805 -0.046655465 -0.10781598 -0.11844697 -0.07829174 0.02335114 -0.01343072 0.29152983 -0.062105205 0.044054046 0.1605946 0.02704929 0.032920353 -0.071614094 -0.029981012 -0.05927398 -0.22907287 -0.118830636 -0.045874607 -0.044346534 0.023841593 -0.11530959 0.0044149267 -0.046560705 -0.021109607 0.0024537211 -0.016615957 -0.016930059 0.026343875 0.16057996 0.037101544 0.011773396 0.10241279 -0.06031355 0.024525777 -0.0353716 -0.036925223 -0.11361372 -0.09269867 0.14897358 -0.06207936 -0.21147361 -0.20250359 0.042759955 0.13354528 -0.24844557 -0.091167234 0.12779045 0.03826572 -0.054902527 0.22445472 0.010532873 -0.06600329 -0.035787925 0.0708095 0.05843692 -0.09154884 0.00018061699 0.04898598 0.013029571 0.016677117 -0.00984546 -0.13675135 -0.173308 -0.07210174 0.033400077 0.015020683 -0.25105637 0.015563824 0.059644885 0.04391788 0.022658834 0.023866128 0.029125202 0.04569466 -0.035362896 -0.08347387 0.1509945 0.043748688 0.040077817 -0.045505047 -0.11644805 0.03058325 -0.027234083 -0.050950874 -0.044993024
M5495 -0.16829018 -0.06251627 0.16575588 0.099125564 0.10728271 -0.1872369 -0.277688 -0.02774555 0.19614722 -0.039603293 0.050038174 0.022517161 0.01067555 -0.07520876 0.17417964 0.06895618 0.0391779 0.015061734 0.10029817 -0.045941032 -0.034335725 -0.045168705 -0.00581374 0.1271415 0.028761188 -0.09677621 0.05063832 -0.2465217 -0.04917848 -0.036473922 -0.1402969 -0.013792855 0.10775226 -0.0063088345 0.16049609 0.07791574 -0.031663295 -0.030034471 -0.007328367 -0.072092056 -0.16172242 -0.001485965 0.05131638 0.028163793 -0.17565358 0.08471382 0.05932501 -0.11180503 0.115928546 -0.07049328 0.0068412255 0.034737036 -0.07462285 0.07299979 -0.084290616 -0.120754 -0.02051318 0.10815119 -0.09441884 -0.14980681 -0.16552629 0.029446317 0.07900571 -0.004338952 0.13100663 0.15246545 0.023895785 0.021046821 0.024526924 0.15334049 -0.041574556 -0.16413277 -0.034699038 0.046642646 0.0046193325 -0.18458752 -0.16791043 0.056183107 0.023595016 0.046321966 -0.124709524 -0.06980199 0.013189001 -0.082859665 -0.11544581 0.05054707 -0.17268854 0.0309634 0.082677424 -0.021857264 -0.090161055 0.15582478 -0.025847154 -0.17265992 0.016161883 0.07041601 -0.08519064 -0.02517556 -0.04212562 -0.046241347
L270 -0.12563229 -0.18324965 -0.042689018 0.07567843 -0.033882935 0.07918856 0.0471841 0.0008609344 0.10199498 0.25882715 0.032147557 -0.06971527 -0.020820897 0.078774676 0.068853386 -0.1608733 -0.06712733 -0.06549055 -0.034556624 -0.003755869 -0.10681997 0.20085691 -0.12786049 -0.025843658 0.011598122 8.06428e-05 -0.11429881 -0.08368749 0.03120183 0.042018473 -0.13754588 -0.12284937 0.07435409 0.14699869 0.025037542 0.03433597 0.059122115 -0.12633227 -0.059737768 0.06313928 0.05665233 -0.030591682 -0.08163237 0.10014217 0.07700632 0.0670135 0.14328773 -0.16464789 -0.020565271 -0.028413447 -0.052190334 -0.058395956 0.035194945 0.07514996 -0.15669262 -0.26872513 -0.027600817 0.028222742 0.12094054 0.0276409 0.07153375 0.013520711 -0.00431671 0.025559852 0.2799329 0.044712327 -0.011189234 0.06765008 -0.041952208 0.0063428455 -0.017557943 0.033328846 0.07448065 0.14261284 0.0790576 -0.116334245 -0.1394631 -0.07261092 0.027561644 -0.108507454 -0.03665698 -0.044195406 -0.078479 0.09021497 0.039645556 0.12878211 -0.05781741 -0.08489572 0.30167627 -0.03413047 -0.12615648 0.17505719 0.017998334 0.042787842 0.062795535 0.08776038 0.11017506 -0.0166228 0.13887879 -0.08143762
E039 -0.10137991 -0.2179331 0.07355909 0.077090025 0.06920624 -0.06973119 -0.11067366 -0.075611375 -0.005274783 -0.09824377 0.0041324766 -0.11069415 -0.0981814 -0.05825412 0.018780177 -0.12766485 -0.03607725 -0.062084 0.0060899644 0.11546611 -0.10417386 -0.07262318 -0.035330653 -0.08660039 -0.10138194 -0.05069621 -0.14231142 -0.07655884 0.066097185 0.022701822 -0.09634595 -0.03712167 0.18207023 0.03135977 0.18145923 -0.027002104 0.10490926 -0.1542513 -0.041377015 -0.11016151 -0.22830594 0.06737081 0.06265248 0.08530492 -0.11409658 -0.011567819 -0.0851043 0.045745376 -0.09649837 -0.082918905 0.012448396 0.020754814 -0.08659484 0.07758951 -0.18598717 -0.17638479 0.069400914 0.0015039857 0.056197878 -0.07377306 -0.109681666 -0.025496261 -0.13253254 0.17322478 0.23803073 0.091794215 -0.017386977 0.084040605 -0.30866873 0.02134991 0.027344884 -0.042108018 -0.048620183 -0.030828208 0.1164253 -0.09669845 -0.113456026 -0.10441196 0.11632891 -0.04745929 -0.040051937 0.10780942 0.0013996998 0.10866394 -0.02486006 0.06989755 -0.11732738 0.061882414 0.06840518 -0.0995674 -0.11118421 0.11387523 -0.011578182 -0.107445836 0.06400104 0.1438781 -0.08586811 0.021628935 -0.0019686066 -0.09165137
L039 -0.045743708 -0.11900403 -0.013342282 0.17245212 0.016640734 -0.08367662 -0.15744352 -0.17630705 0.06800086 0.12852028 0.17072968 -0.020007461 -0.11648315 0.023942934 0.0066479277 -0.047116295 0.058766697 0.010071615 -0.062870525 0.083971255 -0.11780238 0.13916826 -0.05720381 -0.044268917 -0.052861705 0.11100463 -0.045867022 -0.18232869 0.009470796 -0.07993177 -0.141577 -0.16093059 -0.091275714 -0.015792795 0.05941495 0.069993824 0.060817946 -0.1961257 -0.046681497 -0.09799297 0.064527676 -0.10021787 -0.01495034 0.08696477 -0.03607648 0.04047815 0.03380139 -0.09202764 -0.0038014294 -0.08617451 -0.05835453 -0.03887812 -0.20557591 0.005271844 -0.057773683 -0.17941633 -0.15787962 0.12361799 0.009029131 -0.2630321 -0.04945218 0.11965582 0.13388321 0.0043694447 0.17871775 0.11945463 0.021416184 0.0141427545 -0.10123049 0.00062913116 0.08606863 -0.122985065 -0.012907735 0.15442985 -0.017384207 -0.13671546 -0.23631072 -0.2866871 0.05787501 -0.06753653 -0.0072706696 -0.12306109 0.04540845 0.08137038 -0.027532594 -0.05545484 -0.0021323913 -0.06475955 0.025536641 0.0286276 0.012941407 0.052957077 -0.057265155 0.020712597 -0.058536403 0.054888304 -0.054567423 -0.0031367058 0.08234768 -0.054122865
K259 -0.0947146 -0.09379759 0.047000524 -0.011721493 0.12452785 -0.09840216 -0.1843387 -0.0090395715 -0.03287502 -0.04395547 0.019039342 -0.031410474 0.085451975 -0.036024943 -0.05156239 0.14381169 0.06411571 -0.014985882 -0.003780298 -0.088736676 -0.05956814 0.10034543 -0.05040458 -0.017178763 0.059022117 0.06572163 -0.046185914 -0.11473939 0.017347116 -0.10605844 0.01897352 -0.17563647 -0.014578858 0.06952639 0.052762277 -0.14405754 0.09319757 0.16038239 -0.13151273 -0.0040780846 -0.083612435 -0.11119342 -0.08522768 -0.015671775 -0.16423218 -0.08874259 -0.00025337376 -0.15809612 -0.17631559 -0.04321695 0.068814196 -0.08852332 -0.07397854 0.035176024 -0.13047427 -0.03351955 0.11043232 0.20115247 0.062305376 -0.21173564 -0.16789873 -0.056733526 0.084276974 -0.008389372 0.16785458 0.003625504 0.11614616 0.17082378 -0.09421635 0.15251748 -0.010428957 0.036024045 0.034866847 -0.037124358 0.14581007 -0.0667557 -0.105367124 -0.22040178 0.16682172 -0.00017690501 -0.037553657 0.034485452 0.044291254 0.1957245 -0.049838986 0.038251624 -0.08565632 0.15314862 0.032273185 -0.041060578 -0.17822017 0.11052022 0.040432435 -0.15111847 -0.049326193 0.044949077 -0.074367344 0.08839192 -0.038075972 -0.1555399
K635 0.11625479 -0.0773721 0.06162282 0.20898534 -0.021274723 -0.22648145 -0.04405843 -0.00077324326 -0.06614229 -0.12827808 -0.033727128 -0.02609788 0.012969057 0.015507654 -0.16541243 0.036557924 0.0037536004 0.06831958 -0.039449304 -0.12001819 -0.15192127 -0.12278918 -0.08338926 -0.0017714389 0.04539146 0.13014577 0.07476487 -0.050323907 0.104858 -0.12032861 -0.0520977 -0.06922065 -0.026504256 -0.15152739 0.0070276484 0.04241777 0.07407168 0.090767905 -0.099068694 -0.12112212 0.0046939654 -0.286942 0.13382539 0.058393113 0.1123181 0.017088708 0.1264862 -0.032749794 -0.17582236 -0.13964154 -0.040433858 -0.052830853 -0.0038178524 -0.05580503 -0.13993579 0.009719977 -0.086343795 0.12916306 0.09155889 -0.17650488 0.003264683 -0.028564556 -0.048468847 -0.02955672 -0.06973249 0.10093973 -0.014948828 0.041868195 -0.049822643 0.12180792 0.010923176 0.09803459 -0.0003982264 -0.019217074 0.083036445 -0.09637953 -0.24277675 -0.22944817 0.17778711 -0.10676837 -0.079725355 0.06944984 0.078886546 0.22772732 -0.061237946 -0.020396888 0.0062169647 -0.021379692 0.00614318 0.018808357 -0.1723087 0.05592761 -0.04104835 -0.12635374 0.0356728 -0.027167927 -0.074691884 0.027159572 -0.102899835 0.0073270383
L89 -0.16987395 0.046162426 -0.103297405 -0.0015884612 -0.009293557 -0.060851995 -0.039332174 -0.107638404 -0.02652967 0.042676464 0.07355663 0.032571264 0.026788587 0.18806201 0.10090653 -0.015646914 -0.067889266 0.13444772 0.13548295 0.070999086 0.015539509 0.10920929 -0.12226318 0.0039707264 0.115993485 -0.044495057 0.05046144 -0.12678696 0.115767494 -0.08813976 0.07926256 -0.069805674 -0.044885047 -0.07170738 -0.078532204 0.04194217 0.04712703 -0.08742586 -0.18334037 0.07662828 0.102832094 -0.070668615 -0.044209972 0.00374606 0.14410649 0.1395085 -0.0010902802 0.11364891 -0.16701512 0.0016708911 -0.10482436 0.018872254 -0.12483872 0.017872892 -0.003418885 -0.21319509 -0.13102308 0.13823518 0.059844323 -0.28075913 0.03330825 0.22566704 0.13641916 -0.28330374 0.027832368 0.029256478 0.0020839581 -0.11208542 -0.025385644 0.10025904 -0.11772115 0.06701354 0.005223604 0.0683094 0.0668428 0.09513579 -0.00014207077 -0.031090073 -0.0631802 -0.083593085 0.055308517 -0.038678337 -0.021556769 0.050439924 -0.16499123 0.052237388 -0.08804427 -0.12602726 0.031334102 -0.11705055 0.022236874 0.073889315 0.016922696 0.083355844 0.070573814 0.1847743 0.05804371 0.0412652 0.071800545 -0.17095505
N189 -0.15425038 -0.112622015 0.006872943 0.043294307 0.05279148 -0.0046298523 -0.07017529 -0.049296036 -0.11209512 -0.10000975 0.04379347 -0.10095667 0.12444739 0.1726885 0.17972581 -0.11603837 -0.013870165 -0.04514543 0.16195312 0.17674956 -0.057972055 -0.08533698 -0.01761333 -0.08339525 0.048247207 -0.038682353 -0.025150849 -0.037714433 0.2106418 0.013008065 0.0017614644 -0.12478342 0.25695488 0.0055083623 0.04906341 0.08443578 0.11262453 -0.18777744 -0.009061271 -0.022232523 -0.1364039 -0.05341505 0.008530571 0.027707905 -0.12200892 0.062026296 -0.12165761 0.09997265 -0.12771565 -0.11026256 -0.019000197 0.009706518 0.027148627 -0.04136567 -0.08924691 -0.17528905 0.0052175345 0.09094029 -0.010235417 -0.117810495 -0.14198914 -0.06351131 -0.042409986 0.037914418 0.13603483 -0.0060950783 0.05139928 0.03712863 -0.19664033 0.13924897 0.009277778 -0.060332414 0.05812088 -0.069750786 0.08259286 -0.027407806 0.047108427 -0.099520355 0.015566396 -0.11627978 -0.025658762 0.07054578 -0.05711423 0.07065438 0.0013567826 0.23428366 -0.08814354 -0.012316828 0.12140577 -0.20397483 -0.07342132 -0.04539045 0.17982735 -0.1035532 0.14462228 0.16694388 0.01855893 0.07619307 0.060203396 -0.06481097
H919 -0.10920847 0.048528545 0.11070495 0.062078804 -0.101722404 -0.18321738 -0.08184742 -0.16383411 0.040743224 -0.037635356 0.06911702 0.05743739 0.006921403 -0.061908834 0.07338591 -0.08046131 -0.08385369 -0.095603146 -0.06261692 -0.02117129 -0.13815501 -0.07601225 -0.06116026 -0.09773946 0.0361588 -0.04066823 -0.04471417 -0.08558624 0.06879575 -0.028606948 -0.057095855 -0.09549395 0.096100196 0.098282754 0.08071709 -0.07963345 -0.09720678 0.052909605 -0.049671367 -0.018973924 -0.07790562 0.0368499 0.08458907 0.22199355 -0.040722523 0.04590331 0.022465311 -0.05567925 0.24240455 -0.012668887 0.040550284 -0.103590116 -0.103476405 0.031041544 -0.0059479885 -0.28496528 -0.17764093 0.08458339 0.0706185 0.018667087 -0.15064627 0.017232718 0.051522188 -0.018088767 0.31253776 0.117110394 -0.16177617 -0.0778756 -0.015859688 0.011729679 0.0039783684 -0.08554765 0.09450695 -0.041766815 -0.028689992 -0.15390666 -0.19571878 -0.13146959 0.1676975 -0.02432312 -0.10165914 0.030654715 0.15081352 0.059281655 0.072688386 0.10533961 -0.059852697 -0.011523592 0.08098925 -0.20556495 -0.08898435 0.07821459 0.053568915 -0.0382936 0.054704767 0.007778359 0.117451385 0.0014127032 0.101233706 0.036026902
T1420 -0.04371474 -0.09034777 -0.005397241 0.18484263 0.08692297 -0.14307314 -0.1123312 -0.22439037 0.03526362 0.0122395335 -0.035287257 -0.05560036 0.07289331 -0.009934455 0.111327566 0.055067305 -0.0904135 0.15535645 0.10239806 -0.0021398256 0.1233753 0.12841088 0.012004009 0.06139188 -0.010625529 -0.03508477 0.1238815 -0.16162655 0.048601553 -0.024130872 0.023961142 -0.11308019 -0.060928985 -0.016986346 -0.16561778 0.19839378 -0.040039044 -0.14819661 -0.11587085 -0.092631504 0.021814324 -0.039280575 0.08545543 0.197828 0.03505517 -0.0023828438 -0.04997497 0.19104598 0.14916676 -0.006373734 0.13489786 -0.109454215 -0.16664685 0.06588411 0.12419407 -0.17971772 -0.018857064 0.07986922 0.05534434 -0.047222223 -0.053444047 0.077026725 0.23238319 0.03334829 0.14835472 0.08355451 0.022887304 0.08589759 -0.067155704 -0.06203581 -0.08324112 -0.0359734 0.024949966 -0.032520503 -0.07856329 -0.06420074 -0.13218072 -0.1999287 0.20320846 -0.088248104 -0.007401429 0.009197816 -0.08887539 0.08783779 -0.032892287 0.023934072 -0.088993326 0.0080632195 0.1055914 -0.051464964 0.060032986 -0.017551713 -0.08162237 -0.07333986 0.02222855 0.10984079 -0.1079077 0.16844779 -0.008956412 -0.086970106
C189 0.054791722 -0.09248313 0.043081783 0.20695724 -0.040601887 -0.11259337 0.0476866 -0.074297115 -0.09764955 -0.11903377 -0.049668957 -0.10868083 -0.17929095 0.025249317 -0.10532622 -0.0119783655 0.012766325 0.020419799 -0.00047155656 -0.02186861 -0.083083645 0.05636544 -0.09740304 0.039778043 -0.037157018 0.10862793 0.13254668 -0.086612545 0.14420357 -0.111278825 0.023738246 -0.090398006 0.04480845 -0.08846541 0.04663384 0.013980164 0.0840691 0.10054997 -0.030863358 -0.028757729 0.019299367 -0.23484412 0.052530523 0.021638758 0.0228854 -0.09835138 0.1283757 0.026809752 -0.1652668 -0.0079055475 0.05836334 0.07274355 -0.047866285 0.10993768 -0.17519698 -0.044836175 -0.04794251 0.19188797 0.10664942 -0.1462808 -0.01602257 0.02678391 -0.03590762 0.052804034 0.045863852 0.106408164 0.022141587 0.17247511 -0.16797027 0.12099895 -0.021338245 0.16137516 0.08168629 -0.13329141 0.1448577 -0.13779409 -0.19934742 -0.19837461 0.1909966 -0.16043411 -0.14412786 0.06644816 0.10489811 0.12777303 0.011775279 0.11468193 0.018566228 -0.053024974 -0.0464732 0.015225286 -0.14909558 -0.0028760482 0.053424112 -0.14739801 0.08392876 0.07844694 -0.08596944 -0.005722005 -0.048112515 0.0026729954
I219 -0.19617274 0.069692135 0.034772474 0.052761484 0.097234264 -0.099653125 -0.0043109055 -0.053564686 -0.070338674 0.014890003 0.009222859 -0.05838574 -0.054058783 0.107132494 0.08963066 -0.04873116 0.08249597 -0.113562964 0.080026545 -0.0035592082 -0.067550935 -0.012325629 -0.15554981 0.031173885 -0.074274436 0.10898237 -0.07223626 -0.09100193 0.18620709 0.08761238 0.052934717 -0.10586167 0.021027023 -0.041794803 -0.05657864 -0.086854 -0.017181404 -0.0585859 -0.058670145 0.08860613 -0.16092089 -0.06333089 -0.056444623 0.08215029 -0.073780894 -0.011234688 -0.003420955 0.1720831 -0.02804593 -0.074473076 -0.108732074 -0.068373546 -0.016860057 -0.15548533 0.116495386 -0.14971942 -0.055751164 0.1270913 -0.022533668 -0.21203083 -0.1784467 0.08636484 -0.001953818 0.109425604 0.18260753 0.11127719 0.18905899 0.04694702 0.037052035 0.083779655 -0.02402819 -0.065806836 -0.080770865 0.01107525 0.09056744 -0.18487144 -0.16885923 -0.19488402 0.06369328 -0.12559064 -0.07801137 -0.05358814 0.050140835 0.10450669 0.047093917 0.1279674 -0.12988581 -0.029907193 0.106363565 -0.14959705 0.11689356 -0.16680728 0.13921814 -0.09286404 -0.0124789905 0.15282293 0.100095905 0.05105865 -0.0281289 -0.14214876
C509 0.108800456 -0.116088085 0.078489915 0.21190453 -0.050186876 -0.067592986 0.11466673 -0.081456564 -0.0552034 -0.21194902 -0.0783251 -0.17363745 -0.13600925 -0.032293152 0.026558109 -0.055776644 -0.01861634 0.018473394 0.0123306345 0.039170474 -0.106484376 0.012687582 -0.013634838 -0.0010130755 0.034693863 0.08855186 0.0746187 -0.052057274 0.15382572 -0.073581025 0.030128285 0.01045127 0.1785159 -0.13577594 -0.024185615 0.092494145 0.05472902 0.02406238 -0.080578506 -0.05252889 -0.04096666 -0.15869011 0.09661085 0.09006484 0.045883268 -0.2273397 0.035129357 0.0021200771 -0.08755305 -0.059116554 -0.015631897 0.10065786 -0.033960976 0.09487069 -0.061228655 -0.071489684 -0.031616252 0.070548944 0.10684915 -0.11194221 -0.01180084 0.006064629 -0.004340685 0.0897837 0.05972339 0.15440948 0.019474534 0.1369265 -0.16716911 -0.0051045218 0.023287755 0.1581888 0.08225604 -0.18460923 0.22192818 -0.1084056 -0.24728037 -0.14698827 0.20717138 -0.15521146 -0.07279015 0.018799577 0.04082978 0.062205598 0.009025185 0.17565091 0.13813369 -0.05040066 0.008682463 -0.06650567 -0.14016476 0.024797708 0.0026889853 -0.1530425 0.08070459 0.015870966 -0.060827937 0.019909985 -0.013373207 -0.05162084
C786 0.070331186 -0.088021375 0.11076365 0.15922846 0.071068846 -0.16938105 -0.05224785 -0.11788897 0.012739941 0.000996563 0.14583983 -0.06631226 -0.13548063 0.06267197 -0.020381963 -0.03666761 0.024344847 0.077624574 -0.09146945 0.08845262 -0.18795735 -0.018241644 -0.014128586 0.005940677 0.010097393 0.092528105 0.04040735 -0.14537703 0.028676543 -0.07517093 -0.11243129 -0.12015808 0.029086102 -0.04109659 0.019232733 0.035266306 0.059678912 -0.05798984 -0.047798935 -0.11524183 -0.027789518 -0.30588612 0.013118387 0.012712528 0.015862266 -0.032927886 0.19880241 -0.040757906 -0.037147958 -0.14843163 -0.00912165 0.07427475 0.049710248 0.029806918 -0.09612414 -0.103640914 -0.064890854 0.1173266 0.047152054 -0.055520393 0.01649343 0.117173776 -0.018641545 0.07320674 -0.0533357 0.135417 0.050196145 0.008572927 -0.06765685 0.045234025 0.13776544 0.06893229 0.20195433 -0.008068651 0.14487101 -0.12051085 -0.17702758 -0.19162968 -0.0023713468 -0.25978452 -0.14695314 -0.02015514 0.16406746 0.10610462 0.06751733 -0.09121663 -0.025933092 -0.11953132 0.046480536 -0.005744983 -0.07818531 0.046025295 0.10120116 -0.10663728 0.1561268 0.13176975 -0.14638115 0.0069731707 0.0533117 -0.12010247
G409 -0.25249144 0.027748048 -0.004231544 0.09474299 0.088001505 -0.13564707 0.016749825 -0.015289878 0.010066842 0.018442428 0.02407368 0.004033255 -0.11186893 -0.021145813 0.16293158 -0.12259678 -0.16375135 -0.1327878 0.08371469 0.09279047 -0.13182665 0.10061702 -0.011043536 -0.012533104 0.043816924 0.1753828 -0.0002499068 0.015135859 0.11529454 0.0302453 -0.12582697 -0.14138116 0.1093751 0.12646756 -0.008426792 -0.023047442 -0.018119551 0.08448913 -0.102045275 0.08289818 -0.17002815 -0.06685183 0.04302249 0.055236608 -0.048865344 0.007818357 -0.010450256 0.08075007 0.16871326 -0.009422287 -0.034145564 -0.11533547 -0.17042261 -0.00464443 -0.12939061 -0.34716198 -0.06450597 0.080305 0.103160545 0.020542923 -0.09098217 0.05317903 -0.03200372 -0.009778655 0.13141462 0.12532847 -0.09426484 -0.027393596 0.032632295 0.103990056 -0.0067126434 0.042340342 0.044301998 0.042836394 0.066547416 -0.11137694 -0.11959364 0.017352384 0.009880133 -0.17555872 0.14140613 -0.049662802 -0.11317084 0.048736352 0.06386322 0.13839512 0.11452493 -0.01005959 0.16802523 -0.10166648 -0.00083174574 0.19525269 0.10013161 -0.064595215 0.075515136 0.067710266 0.13490717 0.03722565 0.058195412 -0.09390239
